180835 80
</s> 0.004252 -0.003220 -0.004087 0.002689 0.006247 -0.003978 -0.002674 0.000023 0.003015 0.004438 0.005301 -0.005555 0.004554 0.005781 -0.003867 -0.002779 -0.002833 0.000069 0.002098 0.003825 0.003508 0.004164 -0.004045 0.001760 0.002759 0.005825 -0.005946 0.003434 0.003805 0.005211 0.005669 0.006067 0.005624 -0.004124 0.006113 -0.004017 -0.002802 0.000463 -0.000556 0.004123 -0.005420 -0.000407 0.003677 -0.002473 -0.005196 -0.003304 0.000959 0.004987 0.000284 0.002891 -0.003698 0.004774 0.002392 -0.001368 0.001642 0.002443 -0.005218 -0.004879 0.001200 0.002002 0.000405 -0.003428 -0.001801 0.002106 -0.005380 0.002220 -0.002757 -0.002076 0.001238 0.004076 -0.001271 -0.003803 -0.001423 0.001883 -0.003286 0.000017 -0.001377 -0.004487 -0.000246 0.004915
the 0.228076 -0.177536 0.319749 -0.101484 0.041947 0.092950 -0.261170 0.059076 -0.280590 0.075789 0.073194 -0.123215 0.245868 -0.267807 -0.277357 -0.136491 0.041573 0.074432 0.027136 -0.028800 -0.091186 0.188353 0.556065 -0.220640 -0.242421 0.048374 -0.114571 -0.194261 0.323584 0.355862 -0.048206 0.062657 -0.012498 0.121495 -0.079110 -0.310882 0.134032 0.101503 -0.232768 -0.070671 0.033112 0.218174 -0.136393 0.029654 0.321760 -0.151040 -0.135050 0.234850 0.027903 0.251325 0.045762 -0.018935 0.017986 0.028741 -0.127832 -0.162379 -0.158936 -0.069798 -0.110488 0.072145 0.204364 -0.222406 0.198811 0.136748 0.105070 -0.066087 -0.005721 0.034462 -0.270857 0.137423 0.266296 -0.044558 -0.172598 -0.117002 0.111099 -0.217771 -0.013447 -0.154435 0.297690 -0.192989
, 0.263156 -0.175313 0.315749 -0.044648 -0.016672 0.105682 -0.061188 0.137398 -0.205777 0.134334 0.010757 -0.131171 0.066096 -0.015283 -0.125127 -0.268172 0.169472 0.001269 0.020738 -0.009040 -0.089380 0.181679 0.487364 -0.204949 -0.086330 0.038297 -0.159283 0.106870 0.097507 0.241248 0.108148 -0.088547 -0.028492 0.147171 -0.039746 -0.150194 -0.040783 0.150528 -0.199971 -0.248888 0.099426 0.231297 -0.190043 -0.040353 0.247336 -0.066523 -0.116166 0.204902 -0.027926 0.092832 0.215027 -0.076537 0.151405 -0.101518 -0.137591 -0.023870 -0.080466 0.083563 -0.156577 0.004954 0.237823 -0.010796 0.186554 0.133601 -0.138324 -0.115610 0.016165 -0.007467 -0.286694 0.213536 0.174451 -0.046833 -0.112430 -0.051608 0.085678 -0.246625 -0.005143 -0.037459 0.276206 -0.170147
. 0.244281 -0.219556 0.289204 -0.102050 0.131439 0.076325 -0.083352 0.196787 -0.347928 0.091138 0.085773 -0.101375 0.072935 -0.216296 -0.126492 -0.243973 0.131656 0.055029 -0.019355 -0.000951 -0.161563 0.253596 0.559733 -0.198688 -0.087530 0.027933 -0.175410 -0.068409 0.256877 0.322554 0.150716 0.059693 0.075846 0.008069 -0.094014 -0.177377 0.001748 0.154951 -0.048730 -0.228478 0.151119 0.261642 -0.112623 -0.043421 0.275340 -0.159376 -0.220271 0.241907 -0.009753 0.119628 0.150308 -0.103609 -0.029121 -0.014473 -0.196967 -0.037088 -0.074853 0.009604 -0.103937 0.018199 0.224002 -0.131491 0.214685 0.126196 -0.104548 -0.092828 0.070142 -0.025229 -0.289157 0.275102 0.203729 -0.075708 -0.125068 -0.121435 0.155008 -0.143817 0.056430 -0.152130 0.304678 -0.282904
to 0.248325 -0.087408 0.232471 -0.170052 0.195452 0.122465 -0.072648 -0.049361 -0.336417 0.150350 -0.116992 -0.193875 0.084490 -0.129294 -0.203549 -0.290124 0.020948 0.124913 -0.102223 0.054675 -0.249050 0.208744 0.609391 -0.412869 -0.256763 -0.002652 -0.191927 -0.042238 0.310347 0.381425 0.166674 0.008019 0.212640 -0.115301 0.008574 -0.154523 0.165367 0.142479 -0.139564 0.017643 -0.050970 0.236827 -0.077054 -0.278242 0.278607 -0.302802 -0.392314 0.326532 -0.002809 0.148250 -0.109521 -0.046847 -0.096411 0.085061 -0.205291 -0.159539 0.052787 0.087600 -0.129196 0.007416 0.218207 -0.225451 0.284421 0.244712 -0.016741 -0.034385 0.122831 -0.017629 -0.106677 0.261573 0.360410 0.014730 -0.199751 -0.054535 0.331349 -0.155747 0.179383 -0.021609 0.441044 -0.338257
of 0.417247 -0.217591 0.345316 -0.044483 0.096454 0.023241 -0.234885 0.118531 -0.285738 0.012864 0.023550 -0.165978 0.353640 -0.157191 -0.192955 -0.185452 0.128629 -0.056847 0.100170 -0.095390 -0.229149 0.189683 0.422274 -0.286098 -0.121903 0.053813 -0.018346 -0.114995 0.264666 0.230995 -0.132869 0.095404 -0.175801 0.036331 -0.109866 -0.219524 0.027276 0.218654 -0.251326 -0.188764 0.047153 0.182065 -0.014682 0.149033 0.204904 -0.111969 -0.178494 0.386271 0.004202 0.232296 0.164650 -0.062801 -0.007779 -0.179616 -0.146892 -0.106928 -0.210904 -0.033625 -0.064422 0.138856 0.177766 -0.076361 0.339772 -0.024925 -0.043640 -0.005668 0.047109 0.067858 -0.231060 0.112415 0.253335 -0.001816 -0.161944 -0.081381 0.082545 -0.273068 0.010602 -0.351422 0.206006 -0.210435
a 0.295645 -0.249780 0.279916 0.011497 0.076290 0.044096 -0.182471 0.054084 -0.333630 0.161584 0.239198 -0.059327 0.094764 -0.404787 -0.163556 -0.290936 -0.036922 -0.067429 -0.080999 -0.115059 -0.080830 0.221991 0.373356 -0.222746 -0.136890 0.067910 -0.215445 -0.118007 0.368267 0.293248 -0.019770 0.164108 0.203607 0.091022 -0.032977 -0.200038 0.073542 0.243800 -0.330036 -0.029016 0.159897 0.125718 -0.254996 -0.010495 0.290789 -0.037562 -0.254424 0.249570 0.093256 0.365728 0.148707 -0.217653 0.214849 -0.003167 -0.194892 -0.157539 -0.163987 0.062189 -0.046625 0.142588 0.097521 -0.174568 0.153410 0.184052 -0.046518 -0.130860 0.137322 0.021240 -0.172694 0.078819 0.123171 -0.079266 -0.131453 -0.050178 0.173444 -0.165739 -0.153464 -0.220984 0.261224 -0.118731
and 0.325799 -0.202406 0.295326 -0.193685 -0.035849 0.111586 -0.184251 0.149983 -0.285580 0.110993 0.045139 -0.144520 0.118614 0.025914 -0.186832 -0.304190 0.003451 -0.017520 0.067538 -0.064914 -0.186373 0.201849 0.454582 -0.355263 -0.024752 0.118405 -0.084037 -0.078140 0.129237 0.362158 0.198897 -0.087454 -0.096288 0.043867 0.056918 -0.105796 -0.086923 0.014848 -0.068477 -0.161451 0.066871 0.288052 -0.192288 -0.084012 0.332954 -0.147987 -0.279455 0.318184 -0.062684 0.205546 0.038461 -0.024369 -0.006730 -0.156576 -0.165285 -0.026953 -0.116614 -0.006192 -0.050775 0.074367 0.148896 -0.018044 0.168855 0.066405 -0.124857 0.057041 -0.050851 -0.075804 -0.237292 0.264103 0.197698 -0.006976 -0.097942 -0.109735 0.082770 -0.198576 0.060749 -0.029223 0.279744 -0.383161
in 0.310107 -0.126646 0.241242 -0.161752 0.092123 -0.064633 -0.176663 0.200735 -0.386767 0.072916 -0.061633 -0.114716 0.243291 -0.130736 -0.235747 -0.225781 -0.019607 0.050111 -0.033850 -0.183547 -0.022268 0.348940 0.481807 -0.231175 -0.219170 -0.020925 -0.223692 -0.027992 0.201331 0.298695 -0.032684 0.104866 -0.052759 0.213324 -0.117660 -0.343252 -0.080338 0.137393 -0.161772 -0.159188 0.141329 0.235111 -0.003465 0.123702 0.222177 -0.122516 -0.153113 0.456978 0.007570 0.227879 0.102063 -0.004111 -0.044529 -0.036216 -0.128145 -0.130233 -0.186908 0.057837 -0.100456 0.155287 0.297190 0.002439 0.161208 0.196245 -0.024202 -0.191521 -0.033296 -0.022629 -0.308241 0.186807 0.209750 -0.260297 -0.135887 -0.145214 0.128381 -0.194310 0.048090 -0.142804 0.310515 -0.275378
---num--- 0.421387 -0.177072 0.239429 -0.346764 -0.016221 -0.081077 -0.160275 0.430056 -0.615884 0.207377 -0.095349 -0.065007 0.252008 -0.095415 -0.304170 -0.426263 0.300463 0.182532 -0.207600 0.082794 0.002308 0.361085 0.550502 -0.165245 -0.175209 0.006643 -0.266600 0.052541 0.093246 0.222829 -0.095826 -0.228451 -0.009441 -0.026767 -0.589609 -0.110863 -0.204468 -0.073663 -0.209791 -0.209494 0.014090 0.172960 -0.399446 0.156874 0.140590 -0.249191 -0.037987 0.066803 0.119089 -0.021839 -0.039642 -0.391208 0.051893 -0.201098 0.033736 -0.248334 -0.007473 0.278922 -0.224223 -0.089911 0.163033 0.054009 0.397786 0.025844 -0.004611 -0.447723 0.189692 0.013455 -0.630080 -0.279025 0.222236 -0.184970 0.162490 -0.547970 0.056630 -0.062394 0.100545 0.026881 0.473028 -0.326086
" 0.109276 -0.141865 0.525440 0.033944 0.200990 0.389125 0.052834 -0.003198 -0.136513 -0.056887 0.060630 0.040445 0.055233 -0.124784 0.105853 -0.406842 0.328689 -0.347796 0.121920 0.035197 -0.093267 0.139667 0.640796 -0.227223 -0.023185 0.093395 0.032877 -0.174946 0.220367 0.464952 0.338585 0.139826 0.117360 0.289430 0.260975 -0.187663 -0.141363 0.174204 0.022268 -0.165655 0.036158 0.224084 -0.072717 -0.038203 0.246132 -0.098793 0.000772 -0.042000 -0.230274 0.147055 0.393070 -0.361076 -0.186728 0.000405 -0.290250 -0.206757 0.023847 -0.157531 -0.303611 -0.019270 0.262851 -0.316572 0.010785 0.237256 -0.125003 -0.065259 0.086934 -0.038297 -0.061406 0.130588 0.334447 0.127829 -0.149609 0.088357 0.087202 -0.175720 0.022163 -0.177810 0.199968 -0.264764
that 0.069185 0.001686 0.451983 -0.108956 0.076541 0.062723 -0.143617 0.040004 -0.273193 0.130906 -0.090834 0.051059 0.269439 -0.166572 -0.044283 -0.135556 0.012212 -0.005395 0.000192 0.003897 -0.237510 0.080695 0.504057 -0.311297 -0.119655 -0.001626 -0.166310 -0.261172 0.354191 0.430491 0.143831 0.005011 0.127615 0.189025 0.044004 -0.176915 0.253770 0.238170 -0.077062 -0.092633 0.049340 0.143325 -0.063670 -0.226181 0.421170 -0.089264 -0.052467 0.261214 -0.042893 0.290325 0.135300 -0.133578 -0.029663 -0.003735 -0.089861 -0.065261 -0.153456 -0.031118 -0.260039 -0.115955 0.278710 -0.261472 0.268505 0.254243 -0.067453 -0.024540 0.094442 0.039662 -0.209703 0.207664 0.426678 -0.032034 -0.329549 0.079036 0.062031 -0.259701 0.031852 -0.161505 0.324565 -0.171399
for 0.196984 -0.184219 0.339193 -0.066773 0.091097 0.098317 -0.133615 0.075444 -0.280721 0.190175 0.074209 -0.121401 0.186120 -0.076793 -0.373141 -0.314646 0.005275 -0.033892 -0.117260 0.106583 -0.157689 0.167997 0.544893 -0.143356 -0.041038 0.001389 -0.074058 -0.184258 0.210290 0.254141 0.050244 -0.022415 0.191117 0.015466 -0.027345 -0.202065 -0.054890 0.277477 -0.243521 -0.015356 0.113348 0.356026 -0.311797 -0.101746 0.290807 -0.104544 -0.209417 0.436497 -0.085667 0.316332 0.196445 -0.179747 -0.062210 -0.165421 -0.118307 0.039989 -0.063065 0.030286 -0.267805 0.054322 0.088810 -0.099551 0.327154 -0.006893 -0.104641 -0.095302 0.004422 -0.181111 -0.231569 0.082325 0.273196 -0.005651 -0.130235 -0.221043 0.214195 -0.088334 -0.027063 -0.060279 0.265635 -0.189721
on 0.302136 -0.070339 0.235476 -0.103646 0.107504 -0.101552 -0.220843 0.198264 -0.467591 0.069044 0.064135 0.189357 0.049704 -0.018223 -0.333461 -0.229820 -0.006768 0.127918 -0.047074 0.182522 -0.079209 0.530454 0.722468 -0.298802 -0.295788 0.023885 0.004146 -0.180309 0.260241 0.304927 0.277959 0.118019 0.069243 -0.011024 -0.047922 -0.249472 0.052882 0.153779 -0.203181 -0.149931 0.022933 0.201411 -0.200206 0.090406 0.251536 -0.151121 -0.157452 0.317059 0.116848 0.142894 0.169984 0.049381 0.040105 0.196012 -0.064546 -0.024170 -0.100805 0.043486 -0.122028 0.124247 0.273727 -0.159078 0.028908 0.115498 0.017012 -0.188017 -0.005190 0.041599 -0.294472 0.238072 0.255197 0.147382 -0.216770 -0.318463 0.096969 -0.377724 -0.049835 0.047809 0.252059 -0.193429
is 0.356210 -0.133212 0.389700 0.207992 0.280559 0.160690 -0.089551 0.209901 0.040170 0.082662 0.241201 0.021706 0.107325 -0.211751 -0.148352 -0.251070 0.184173 -0.199814 0.038105 -0.108399 -0.117745 0.080053 0.638264 -0.063786 -0.029991 -0.247130 -0.067550 0.258104 0.462412 0.158507 -0.133605 0.076553 0.132574 0.255995 0.042066 -0.137108 0.085326 0.334587 -0.245591 -0.096391 0.018725 0.286333 -0.050930 0.146170 0.393828 -0.084167 -0.073793 0.378918 0.102232 0.141175 0.168138 -0.195588 0.072344 0.151958 -0.116065 0.084160 -0.147672 -0.001912 -0.343458 -0.032814 0.170037 -0.301228 0.233628 0.122395 -0.267569 -0.110168 0.407452 0.084702 0.038810 0.259967 0.301639 0.084876 -0.299662 0.101150 0.092217 -0.272332 -0.196214 -0.237723 0.175651 -0.182475
's 0.291499 -0.157059 0.320851 0.122058 0.208978 0.034341 -0.147141 0.168620 -0.140763 -0.140367 0.034138 -0.153882 0.195232 -0.034103 -0.345225 -0.186564 0.204329 -0.220748 0.059627 0.003474 -0.061359 0.240601 0.602871 -0.278938 -0.103917 -0.077078 -0.147300 0.196831 0.123397 0.423710 0.058557 0.117973 0.160051 0.187762 0.096198 -0.374005 0.171677 0.135266 -0.361829 -0.037848 0.046740 0.182560 -0.225329 0.160853 0.243984 -0.041614 -0.080620 0.291291 0.057555 0.221060 0.171922 -0.179349 0.143378 0.112533 -0.358103 0.018592 -0.046368 -0.046822 -0.299993 0.169306 0.099083 -0.234049 0.177591 0.469254 -0.017571 -0.063340 -0.110552 -0.025636 -0.297873 0.175025 0.247710 0.014115 -0.244482 -0.213659 0.044518 -0.260092 0.036581 -0.130006 0.136580 -0.201786
it 0.057094 0.041329 0.562651 0.012471 0.190238 0.013089 -0.123514 0.140906 -0.145652 0.154886 -0.007591 -0.045607 0.071636 -0.169298 0.047423 -0.249302 0.133432 -0.045014 -0.013145 -0.070011 -0.155565 0.036174 0.741877 -0.172331 0.008154 -0.117053 -0.270382 -0.263508 0.474337 0.486454 0.163024 0.072098 0.105261 0.187517 0.006828 -0.019831 0.217439 0.336982 -0.069797 0.071116 0.240393 0.072945 -0.160830 -0.183516 0.452630 -0.251699 0.018491 0.145382 0.058720 0.230848 -0.043089 -0.315836 0.086285 0.040378 -0.089556 -0.072783 0.031422 -0.029182 -0.225875 -0.270218 0.306862 -0.295584 0.252061 0.401175 -0.002934 -0.107861 0.278575 -0.093258 -0.046962 0.317081 0.270766 -0.099854 -0.253161 0.133942 0.226324 -0.172997 0.094632 -0.083566 0.161934 0.004991
with 0.404843 -0.121961 0.228483 -0.124360 -0.016883 0.192545 -0.252443 0.037977 -0.383797 0.272252 0.071853 0.034155 0.096201 -0.166194 -0.221900 -0.207064 -0.021450 0.013111 0.009090 -0.058867 -0.230262 0.200269 0.465001 -0.421376 -0.115083 0.248182 0.049677 -0.032104 0.225067 0.538308 0.078614 0.072199 0.000226 0.150982 -0.126033 -0.159351 -0.022168 0.054477 -0.042124 -0.059308 0.065102 0.277927 -0.237285 -0.096652 0.246761 -0.160238 -0.394510 0.317935 0.061383 0.166378 0.004770 -0.105382 0.193376 -0.274830 -0.169375 0.055888 -0.266945 -0.053840 -0.032037 0.116631 0.096673 -0.011397 0.036562 0.034319 -0.259340 -0.008666 0.023757 -0.039644 -0.218391 0.197377 0.047326 0.055638 -0.108127 -0.235871 0.097697 -0.156793 -0.056369 -0.038177 0.381004 -0.278215
said 0.067284 -0.048776 0.438044 0.075814 -0.035620 0.347024 0.282021 0.063347 -0.216419 0.277176 -0.172688 -0.113330 0.158563 0.037570 -0.085230 -0.236843 0.429931 -0.190540 0.353835 0.138181 -0.257180 0.149024 0.727643 -0.240089 -0.356251 -0.151059 -0.051074 0.237831 0.155664 0.196788 0.211339 0.063541 0.350718 0.238044 0.375665 -0.314490 0.001644 0.294812 -0.203154 -0.036885 0.126651 0.181620 0.167716 -0.207638 0.052825 0.084968 -0.077141 0.045918 -0.091943 0.268881 0.376312 -0.032925 -0.062600 -0.065503 -0.062168 -0.204476 -0.164622 0.071406 -0.022096 -0.131570 0.290691 -0.147463 -0.035731 0.208442 0.028170 0.068729 -0.152836 -0.065535 -0.194422 0.138916 0.253324 -0.181671 -0.133821 0.113853 -0.102165 -0.397611 -0.041173 -0.251884 0.449988 -0.285174
was 0.217447 -0.273259 0.266142 0.185485 0.071133 0.262848 -0.076430 0.185892 -0.057816 0.201524 0.158445 0.232378 0.091788 -0.226800 0.002766 -0.076121 0.096177 -0.114469 0.106087 -0.102222 0.144537 0.362344 0.497001 -0.001851 -0.199994 0.040240 -0.450678 0.084706 0.406320 0.499802 0.080421 0.224179 0.372546 0.280987 -0.040247 -0.497862 -0.087125 0.430483 -0.377392 -0.017010 0.181597 0.082813 -0.112911 -0.069488 -0.017585 -0.176581 -0.122407 0.380729 0.245295 0.204930 0.160523 -0.235423 0.178682 -0.005934 -0.051407 -0.025336 -0.217970 -0.026293 -0.141023 -0.040227 0.314578 -0.330076 0.307144 0.101253 -0.034940 -0.070898 0.045765 0.077777 -0.408989 0.269726 0.265014 -0.208067 0.004509 0.062598 -0.005584 -0.249152 -0.210863 -0.074382 0.230748 -0.176968
he 0.006797 -0.131294 0.192032 0.071866 0.085486 0.152255 -0.020345 -0.111155 -0.291639 0.380736 -0.180425 0.057998 0.238912 -0.020262 -0.050557 -0.061452 -0.094951 -0.107147 0.001264 -0.051815 0.098780 0.313508 0.494751 -0.029455 0.090738 0.183766 -0.268948 -0.208647 0.372659 0.603408 0.375672 0.065007 0.223114 0.231043 0.123627 -0.403379 0.230907 0.504667 -0.137550 0.116107 0.033047 0.036020 -0.254127 -0.339618 0.271746 -0.105802 -0.056464 0.325209 -0.170086 0.182263 0.169240 -0.287373 0.086252 0.023403 0.014718 -0.311402 -0.024257 -0.045841 -0.206513 -0.118980 0.417718 -0.297875 0.097505 0.211637 -0.148436 -0.164841 0.060722 0.226567 -0.047923 0.434603 0.144634 -0.150161 0.101751 -0.021481 0.287499 -0.174133 -0.065993 -0.022518 0.511270 -0.313218
as 0.262896 -0.087247 0.271845 -0.131874 -0.031916 0.203800 -0.305570 0.214345 -0.112635 0.178192 -0.216572 -0.115780 0.190126 -0.085904 -0.170973 -0.248737 -0.059040 -0.106212 0.056058 0.064925 -0.061534 0.247784 0.441453 -0.245351 0.006232 0.221337 -0.078283 -0.077158 0.410277 0.300138 0.038226 -0.098790 0.056228 0.092071 0.090827 -0.218391 -0.120282 0.237419 -0.110604 -0.098117 -0.043501 0.190479 -0.147414 -0.062171 0.384606 -0.158444 -0.146688 0.286525 0.069638 0.184896 0.097245 -0.121360 0.194504 -0.025500 -0.195969 -0.072148 -0.178127 -0.105207 -0.112181 0.092353 0.173980 -0.302940 0.331211 0.185208 0.001085 -0.123812 -0.150264 -0.211352 -0.011732 0.319033 0.262456 -0.137258 -0.173857 0.049244 0.354511 -0.261397 -0.083172 -0.011582 0.142324 -0.165640
at 0.356204 -0.299007 0.072076 -0.214569 0.004843 0.090911 -0.099312 0.055988 -0.538209 0.210766 0.168407 -0.116036 0.153199 -0.084139 -0.367941 -0.136556 -0.070763 -0.073940 0.070423 0.134934 -0.020774 0.379737 0.585551 -0.044267 -0.461224 -0.224891 -0.077652 0.253389 0.372427 0.140038 0.090882 0.172721 0.148897 0.275867 -0.171927 -0.312479 -0.112583 0.101715 -0.128505 -0.278580 0.294917 0.152909 -0.154484 0.102914 0.156913 -0.194598 -0.076269 -0.087139 0.050596 0.219519 0.273801 0.011096 0.226395 0.037779 0.055955 -0.053954 -0.012251 -0.042411 -0.066421 -0.017730 0.301833 0.069683 0.483861 0.069778 0.082086 -0.254782 0.271308 -0.108031 -0.190471 0.079330 -0.001072 -0.048801 -0.178968 -0.178606 0.171518 -0.373079 0.124773 -0.226885 0.348483 -0.295334
’ 0.126921 -0.161978 0.275605 0.042574 0.024653 -0.092670 -0.062547 0.050923 -0.100160 0.258068 -0.040398 -0.137783 0.138023 0.313358 -0.512039 -0.153118 0.345278 0.198906 0.149492 -0.146202 0.004138 -0.138127 0.700856 -0.096277 -0.244321 0.132889 -0.110811 -0.061216 0.546445 0.144068 -0.000878 -0.040124 -0.076280 0.360056 -0.246183 0.036256 0.442576 0.343145 -0.271391 0.019795 0.411700 -0.092718 0.171276 -0.180476 0.516918 0.002152 -0.163435 0.323900 0.060345 -0.047887 0.249859 -0.212959 0.497973 -0.050006 0.045725 -0.039059 0.273099 0.101810 -0.123161 0.085639 0.312432 0.022354 0.273624 0.417718 -0.086001 0.115029 0.094571 -0.052611 -0.153367 0.581106 0.383018 -0.045735 -0.258432 -0.062184 -0.139267 -0.214930 0.142210 -0.070428 0.355157 0.149246
---unk--- 0.056004 -0.201374 0.237742 -0.136093 -0.164963 0.017374 0.095032 0.045921 -0.089146 0.059720 0.101052 -0.236485 -0.112933 -0.087364 -0.043821 -0.302297 0.242765 -0.025186 -0.074354 -0.215319 -0.056509 0.189063 0.117850 -0.341453 -0.099275 0.099426 -0.088989 0.093327 0.121045 -0.082774 0.025166 -0.024782 -0.194646 0.031563 -0.006767 0.005503 -0.241096 -0.015691 -0.240553 -0.144647 -0.020726 0.211992 -0.365708 -0.064135 0.352411 0.023838 -0.140532 0.009807 0.002850 0.077610 0.305804 -0.248561 0.313468 -0.211110 -0.215121 -0.207807 0.084135 -0.173351 0.061556 0.087862 0.283255 0.067809 0.186806 0.031086 -0.074452 -0.198842 0.276114 0.060102 -0.293969 0.141812 0.002408 0.004088 -0.180431 -0.148851 0.021225 -0.289793 -0.102404 0.037844 0.107493 -0.040166
by 0.338819 -0.104380 0.259850 0.093958 -0.121700 0.183352 -0.279036 0.225233 -0.360391 -0.111810 -0.104408 -0.024824 0.229876 0.046210 -0.230099 -0.100808 0.144210 0.154555 0.148325 -0.173077 -0.042180 0.420986 0.104542 -0.371299 -0.209761 -0.036257 -0.262251 -0.092800 -0.133459 0.416812 0.154066 -0.168396 -0.044633 0.014030 -0.275185 0.019205 -0.078562 0.005324 -0.410959 -0.160635 0.181830 0.321311 -0.128760 -0.149661 0.301250 -0.318469 -0.148791 0.437387 0.121654 0.301808 0.024825 0.009582 -0.024107 -0.170182 0.148216 -0.172714 -0.230098 -0.066858 -0.212657 -0.069018 0.448479 -0.268013 0.303419 0.152105 0.142435 0.011880 -0.119742 -0.089784 -0.440028 0.030673 0.431850 0.076200 -0.102156 0.175824 -0.125517 -0.269829 0.016110 0.054577 0.160465 -0.193132
from 0.369381 -0.033453 0.276076 -0.074560 -0.066875 -0.094341 -0.120707 0.155573 -0.260324 0.001341 -0.010640 -0.206914 0.218415 -0.220392 -0.175431 -0.276590 -0.021338 -0.075918 0.000307 0.098470 -0.075745 0.357460 0.364348 -0.318528 -0.183946 0.023760 -0.179174 -0.044107 0.319988 0.321615 -0.054780 -0.065414 -0.017292 -0.052701 -0.230805 -0.349120 0.028091 0.049802 -0.235487 -0.251223 -0.058066 0.109034 -0.273291 -0.074332 0.132344 -0.320078 -0.307675 0.401893 -0.121552 0.260489 0.032602 0.054773 -0.014719 -0.092196 -0.204106 -0.047417 -0.088141 0.039132 -0.085398 0.095565 0.398467 0.034673 0.135050 0.149300 0.049042 -0.017823 -0.003317 -0.013524 -0.434283 0.183332 0.184653 -0.053926 -0.024383 -0.025655 0.207335 -0.179825 0.114744 -0.042242 0.348802 -0.167722
be -0.067967 -0.125045 0.350132 -0.006826 0.171102 0.119212 -0.088758 -0.085943 0.105588 0.217490 0.014525 0.081193 0.187551 0.016825 -0.035205 -0.096528 -0.052154 -0.048495 -0.093663 0.157124 -0.218117 0.162664 0.770996 -0.042617 -0.056778 -0.060026 -0.247074 -0.159823 0.366556 0.174465 -0.006066 0.058002 0.089795 0.318208 -0.145845 -0.235262 -0.110796 0.349666 0.146182 -0.299900 0.041859 0.423816 -0.118473 -0.400737 0.376355 -0.269249 -0.086390 0.298948 0.082205 0.162216 0.049238 -0.197947 -0.226884 0.076116 -0.174471 -0.135109 -0.308371 -0.056674 -0.334244 -0.156161 0.367848 -0.518982 0.420233 0.099595 -0.041548 -0.179313 0.302196 -0.135258 -0.024272 0.257055 0.351333 0.001240 -0.302320 0.066774 0.320399 -0.378424 -0.162041 0.071134 0.289548 -0.143166
have -0.084830 -0.019395 0.337044 -0.350173 -0.093665 0.136334 -0.092163 -0.045546 -0.104060 0.250116 -0.107042 -0.122851 0.437911 0.057039 -0.112781 -0.085452 -0.021896 -0.088376 -0.029522 0.114176 -0.202401 0.240261 0.434927 -0.252224 0.104659 0.074412 -0.276074 -0.283653 0.267460 0.624168 0.093253 -0.093159 -0.047231 0.296534 -0.053654 -0.149537 -0.073943 0.386888 0.085017 -0.313536 0.155894 0.311563 0.041267 -0.307273 0.323135 -0.345175 -0.267911 0.224794 -0.132773 0.210692 0.047563 -0.126838 -0.234713 -0.083842 -0.022542 0.174400 -0.289308 -0.003957 -0.238208 -0.029604 0.206458 -0.155033 0.293661 0.326700 0.035086 0.041204 0.241186 -0.063902 -0.370006 0.252585 0.368375 -0.134269 -0.256802 0.043449 0.128800 -0.314255 0.174982 -0.055718 0.446480 -0.189043
his 0.344557 -0.246755 0.030813 0.159185 0.079702 0.093959 -0.244995 -0.036809 -0.275131 0.145647 -0.088367 0.111576 0.320308 -0.035051 -0.241256 0.293263 -0.032437 -0.070404 0.049170 -0.199531 0.102275 0.532981 0.259238 -0.169997 -0.003235 0.320970 -0.086309 -0.108065 0.422180 0.440301 0.297434 0.078969 0.201917 -0.135815 -0.009343 -0.508901 0.213274 0.412742 -0.319337 0.105222 0.091724 0.043800 -0.393439 -0.141719 0.241668 -0.132730 -0.296622 0.651019 -0.016713 0.220699 0.147901 -0.258811 0.254789 0.098864 -0.103596 -0.145094 0.160505 -0.014480 -0.286873 0.029130 0.189686 -0.255357 -0.085012 0.100130 -0.164853 -0.074175 -0.181350 0.430839 -0.098738 0.350021 0.076693 0.043697 0.162707 -0.274643 0.296696 -0.285711 0.018810 -0.110745 0.366818 -0.381014
but 0.137881 0.054384 0.358727 -0.105068 0.112722 0.134115 -0.080659 -0.055289 -0.127405 0.162930 0.053571 -0.041174 0.222616 -0.183488 -0.127417 -0.204590 0.083074 0.043347 0.110708 0.085760 -0.263457 0.196690 0.611800 -0.118800 0.151579 -0.024079 -0.194123 -0.171245 0.368427 0.575524 0.094930 0.015062 0.146258 0.152461 -0.174956 -0.171981 0.080348 0.330531 0.043127 0.045874 0.188917 0.139013 -0.095140 -0.187702 0.395558 -0.120105 -0.148673 0.296291 0.000977 0.225486 0.093269 -0.099716 0.125569 -0.026109 -0.070612 0.022497 -0.093077 -0.100834 -0.222781 -0.175870 0.261563 -0.179029 0.235414 0.414111 -0.114985 -0.050834 0.132196 0.034121 -0.173002 0.280405 0.380984 -0.151737 -0.125398 0.069446 0.195102 -0.252884 0.102225 -0.035595 0.311430 -0.159810
are 0.373573 0.009129 0.420316 -0.209302 0.219343 0.065877 -0.028910 0.074569 0.140352 0.269136 0.052391 -0.007639 0.266274 -0.040618 -0.226813 -0.110342 0.030924 -0.068859 0.081585 0.230111 -0.273798 0.090038 0.718444 -0.177215 -0.017692 0.048612 -0.129826 -0.115316 0.299805 0.343469 -0.068832 -0.101612 -0.196915 0.178493 -0.071918 0.078369 -0.366669 0.145836 0.253329 -0.281119 -0.051709 0.517498 -0.012429 -0.034478 0.323599 -0.355807 -0.282884 0.315819 -0.192073 -0.001179 0.280520 0.059648 -0.283279 -0.066453 0.020358 0.244512 -0.423355 -0.238689 -0.216939 0.001582 0.127710 -0.109379 0.311057 -0.009343 -0.293086 -0.055361 0.316230 -0.070251 -0.021282 0.346841 0.390354 0.229402 -0.300635 0.076719 0.100637 -0.540897 0.008692 -0.051426 0.296077 -0.156684
has 0.063869 -0.031828 0.311788 -0.057729 -0.221733 0.221857 -0.218659 0.184811 -0.062762 0.095024 0.090439 -0.173634 0.430465 -0.032615 -0.254038 0.059244 0.100116 -0.138398 -0.025431 -0.200452 0.102810 0.382854 0.246765 -0.198614 0.109030 -0.050506 -0.061544 0.137296 0.297228 0.486213 0.044538 -0.228327 0.097617 0.246036 -0.032918 -0.365308 0.165037 0.444027 -0.323579 -0.115155 0.016828 0.326950 -0.159647 -0.122946 0.293879 -0.182907 -0.073070 0.445380 0.047093 0.469411 -0.119533 -0.374523 0.019220 0.031514 0.004236 0.299864 -0.299234 0.064628 -0.257620 0.105062 0.220776 -0.057432 0.126863 0.373306 -0.045351 -0.141810 0.057469 0.030460 -0.312540 0.193191 0.284918 -0.262278 -0.304591 0.113458 0.043888 -0.064770 -0.029588 -0.319950 0.356568 -0.199712
i -0.180437 -0.239564 0.450042 -0.245912 0.124295 -0.074648 0.472892 -0.294151 0.155682 0.400955 0.129726 0.243121 -0.133088 -0.075607 0.194163 -0.282826 0.212936 -0.407343 -0.129755 -0.371259 -0.007751 0.267591 0.575751 -0.080382 0.147993 0.115924 -0.594489 -0.374525 0.635788 0.374427 0.472897 0.258594 0.059020 0.426876 0.199754 0.035362 0.238241 0.269845 0.003078 -0.243597 0.260431 -0.097010 0.059816 -0.166872 0.495162 -0.400714 -0.032858 -0.027430 -0.316931 -0.096470 0.494605 -0.771900 0.032778 -0.063367 0.117031 -0.100025 0.375651 -0.463543 -0.208185 -0.281543 0.368813 -0.278283 0.061802 0.491314 -0.205748 -0.321586 0.235503 0.290308 -0.038880 0.377317 0.165678 0.137553 0.371428 0.113601 0.311599 0.106501 0.277604 0.006891 0.650018 0.078960
an 0.286130 -0.199851 0.259215 0.124843 0.123918 0.148155 -0.174642 0.042962 -0.438447 0.111733 0.210270 -0.046457 0.199851 -0.429902 -0.067134 -0.306575 0.001268 -0.068358 -0.056546 -0.220654 0.006233 0.230356 0.291551 -0.297186 -0.179660 -0.096258 -0.293854 -0.067547 0.429127 0.076956 -0.031918 0.150416 0.261428 -0.005319 -0.071386 -0.207740 0.096215 0.386568 -0.465842 0.123501 0.066610 0.246843 -0.220771 -0.119754 0.231977 -0.082338 -0.228843 0.251159 0.108007 0.264327 -0.027604 -0.165156 0.249292 -0.122274 -0.060136 -0.208273 -0.146088 0.040813 -0.113161 0.151451 0.314701 -0.243278 0.176867 0.067417 0.061928 -0.098822 0.095929 -0.047936 -0.089501 0.067862 0.275086 -0.056626 -0.352849 -0.050617 0.101236 -0.150442 -0.266688 -0.278247 0.204882 -0.179757
: 0.160600 0.001695 0.252687 -0.150340 0.288740 0.097660 -0.067465 0.046538 -0.238003 -0.012463 0.379202 -0.081094 -0.081510 0.119335 -0.144956 -0.427381 0.437208 -0.199954 -0.244275 0.024030 0.217994 0.257113 0.778458 -0.192954 -0.179620 0.237554 -0.168662 0.007201 0.299438 -0.006789 0.066024 -0.005528 -0.182611 0.147028 -0.492802 0.066241 -0.068342 -0.125204 -0.269341 -0.156025 0.142580 0.108989 -0.253592 0.330894 0.229919 -0.005897 -0.146669 -0.186647 -0.354724 -0.166759 0.276130 -0.395320 0.110593 -0.062942 -0.132489 -0.020977 0.119597 0.412942 -0.433029 0.094860 0.313909 -0.027770 0.266710 0.287377 -0.355860 -0.220401 0.216027 0.105110 -0.537680 0.086752 0.386558 0.321237 -0.173017 -0.436411 -0.055639 -0.300052 -0.060994 -0.015026 0.170652 -0.503509
s 0.229006 -0.189738 0.285268 0.119115 0.055112 -0.054856 -0.119687 0.214262 -0.062778 0.167112 -0.016504 -0.042859 0.103830 0.174021 -0.660164 -0.070890 0.308049 0.015122 0.072112 -0.181615 0.054218 -0.090451 0.624466 -0.117354 -0.249540 0.131453 -0.055814 0.047553 0.588562 0.104661 -0.150353 -0.134423 -0.023673 0.322425 -0.187903 -0.155017 0.424085 0.246375 -0.433066 0.071082 0.317948 -0.035492 0.050647 0.016417 0.367308 0.058187 -0.144506 0.422635 0.118220 0.060334 0.177575 -0.160756 0.517948 0.008684 0.030342 -0.003429 0.188933 0.120667 -0.015998 0.157916 0.197382 0.003460 0.224440 0.317235 -0.065300 0.085677 -0.042995 -0.006901 -0.164239 0.551951 0.402755 0.024591 -0.314285 -0.046475 -0.062924 -0.261640 0.015050 -0.141311 0.224173 0.059536
not -0.048102 0.173947 0.443603 -0.016954 0.182241 0.380008 0.139952 0.019827 -0.128102 0.250165 -0.178844 0.097345 0.262555 -0.041146 -0.096199 -0.128385 0.077211 0.095281 -0.125102 0.010111 -0.323353 0.140789 0.727746 -0.138173 0.031473 -0.123167 -0.211924 -0.079058 0.528003 0.448958 0.160389 -0.013413 0.181213 0.028526 -0.028450 -0.193123 0.077288 0.298621 -0.033634 0.076492 0.129000 0.103935 -0.008809 -0.258901 0.421778 -0.204009 -0.078792 0.224099 -0.037016 -0.006989 0.207800 -0.044214 -0.167355 0.121213 -0.072055 -0.049863 -0.026371 -0.067603 -0.360927 -0.126659 0.374529 -0.382132 0.277537 0.327571 -0.242739 -0.059181 0.172479 0.046495 -0.059150 0.162798 0.428742 -0.075792 -0.179657 0.049054 0.046999 -0.400239 -0.049846 -0.053056 0.367021 -0.204759
) 0.381142 -0.172810 0.208757 0.142086 0.059888 0.310814 -0.013697 0.441996 -0.534434 -0.023446 0.137220 -0.378144 -0.060850 0.014443 -0.090335 -0.541987 0.355344 0.007075 -0.344229 -0.041166 -0.064116 0.290770 0.521120 -0.354739 0.095751 -0.033611 -0.529961 0.269078 -0.238158 0.117288 0.091932 -0.465001 -0.321140 0.050634 -0.439903 0.190653 0.019901 -0.082482 -0.347954 -0.422493 0.060958 0.373658 -0.504500 0.380466 0.171911 -0.103833 -0.230989 0.213799 0.010828 0.097489 0.202452 -0.010783 0.299009 -0.261339 -0.057355 0.033154 -0.018391 0.277931 -0.568415 0.032397 0.014206 -0.041876 0.021275 0.396521 -0.081716 -0.179464 0.133348 -0.079956 -0.308570 -0.199043 0.378562 0.189399 0.255471 -0.325375 -0.049467 -0.109701 -0.056623 -0.055608 0.094898 -0.190584
they 0.157017 -0.085686 0.319880 -0.364993 0.129300 0.004129 -0.052960 -0.150799 -0.216513 0.337526 -0.131184 -0.123315 0.183376 -0.169657 0.021257 -0.198471 -0.045986 0.094936 -0.158391 0.056709 -0.374214 0.165649 0.656955 -0.144472 -0.181948 0.233590 -0.583885 -0.363919 0.400379 0.605380 0.231516 -0.091285 0.152153 0.135099 0.073052 -0.003294 0.016402 0.289860 0.079345 -0.073514 0.151121 0.120315 0.046601 -0.381189 0.386747 -0.496170 -0.364500 0.088700 -0.085180 0.042036 0.189453 0.009781 -0.361918 -0.075759 0.036597 -0.039174 -0.178835 -0.195679 -0.154965 -0.092072 0.198413 -0.284924 0.338408 0.142571 -0.142285 -0.022776 0.184944 0.108054 -0.123045 0.294985 0.385491 0.112816 -0.089629 0.040154 0.086116 -0.390803 0.340850 0.119985 0.464558 -0.169892
( 0.404483 -0.167929 0.178940 0.173923 0.069809 0.285616 0.000344 0.448459 -0.546251 -0.029792 0.134103 -0.373087 -0.063196 -0.006025 -0.101665 -0.576485 0.320344 0.004659 -0.352363 -0.070831 -0.094901 0.283026 0.496559 -0.326007 0.113180 -0.012359 -0.538016 0.308668 -0.256676 0.087742 0.015332 -0.510044 -0.336472 0.098317 -0.472985 0.163289 -0.021718 -0.021951 -0.344469 -0.404095 0.020580 0.360585 -0.452499 0.423095 0.167638 -0.124997 -0.261388 0.202812 -0.035811 0.077896 0.228907 0.025308 0.353773 -0.261383 -0.105464 0.027266 -0.029139 0.285518 -0.586703 0.009375 0.014627 -0.024357 0.031568 0.437080 -0.083313 -0.201497 0.140176 -0.079560 -0.355970 -0.159994 0.348176 0.219560 0.253739 -0.333059 -0.101481 -0.151595 -0.062235 0.007664 0.091487 -0.182622
this -0.002517 0.107935 0.308316 0.102795 0.333816 -0.070823 -0.224809 -0.149975 -0.321442 0.115832 0.085912 0.029132 0.178063 -0.392489 -0.244852 -0.297495 0.221335 0.033834 0.183327 -0.123676 -0.141302 0.173786 0.440905 -0.290835 -0.136185 -0.153832 -0.211741 -0.150491 0.330397 0.272400 0.126457 0.323830 0.054376 0.276920 -0.075286 -0.147491 0.190533 0.084801 -0.227755 -0.187563 0.140836 0.179405 0.119089 0.119968 0.408667 -0.288810 -0.048464 0.300508 0.009923 0.197253 0.272608 -0.410082 0.011044 0.041875 -0.056418 -0.286403 -0.013183 -0.008807 -0.369014 -0.189964 0.196064 -0.220928 0.140221 0.240375 -0.040172 -0.278943 0.254713 -0.215708 -0.177414 0.205846 0.408029 0.063183 -0.361326 0.193453 0.207292 -0.058181 0.117360 -0.248464 0.355270 -0.133987
“ 0.080659 -0.154205 0.354954 0.007273 0.007303 0.155322 -0.016310 -0.037692 -0.125290 0.236214 -0.028852 0.117363 0.067002 0.114113 -0.135744 -0.346329 0.274525 0.081426 0.152988 -0.189937 0.064675 -0.147315 0.712812 -0.129810 -0.202225 0.272113 0.013546 -0.394952 0.593742 0.127355 0.161262 -0.083640 -0.129068 0.476448 -0.132911 -0.033167 0.077155 0.323139 -0.141085 0.010479 0.274086 0.062738 0.204305 -0.185688 0.294575 0.029842 -0.084583 0.196884 -0.128494 0.049192 0.437224 -0.309100 0.092666 -0.073766 0.138577 -0.325946 0.318876 0.114351 -0.059878 0.017409 0.384350 -0.070899 0.112740 0.079011 -0.193066 0.150154 0.237253 -0.110272 -0.004559 0.427820 0.435448 0.068416 -0.199366 0.177803 -0.122259 -0.215168 -0.025546 -0.184663 0.297062 0.015658
” 0.112441 -0.214824 0.293258 -0.006899 0.052239 0.196408 -0.038031 0.110514 -0.145589 0.195801 -0.048900 0.044517 0.055519 0.094663 -0.181538 -0.341139 0.348195 0.089481 0.185597 -0.233567 0.012645 -0.145986 0.720864 -0.077752 -0.192146 0.250013 0.070546 -0.343588 0.593184 0.054868 0.208188 -0.130114 -0.090980 0.403679 -0.078135 -0.113549 0.068899 0.330393 -0.123805 -0.010184 0.260798 0.110089 0.141625 -0.227836 0.250514 0.064812 -0.146993 0.209044 -0.152675 0.036036 0.420964 -0.252050 0.126399 -0.076642 0.078926 -0.328927 0.310317 0.146604 0.001930 -0.009625 0.391290 -0.063606 0.043424 -0.002822 -0.134783 0.188343 0.162587 -0.092581 0.057334 0.446056 0.388996 0.054456 -0.159581 0.183505 -0.069532 -0.151981 -0.090369 -0.220543 0.252699 -0.093733
we -0.044885 -0.069327 0.552990 -0.315521 0.187354 0.111341 -0.050196 -0.287698 -0.084614 0.348998 0.053301 -0.152529 0.087334 -0.178088 -0.183921 -0.453768 0.171896 -0.274114 0.040222 -0.082505 -0.313214 0.010857 0.899781 -0.144112 -0.227989 0.169459 -0.256015 -0.255206 0.472984 0.349409 0.392853 0.079195 0.051506 0.405733 0.379617 -0.004865 0.158255 0.145888 0.262531 -0.224994 0.352197 0.248635 0.343483 -0.149310 0.416614 -0.329982 -0.118054 -0.072160 -0.217193 0.033542 0.103574 -0.447381 -0.482801 -0.055301 0.122515 -0.144744 0.120656 -0.173600 -0.245888 -0.236582 0.266362 -0.241893 0.082054 0.158186 -0.183775 -0.207869 0.175658 0.148305 -0.043734 0.426544 0.580161 0.235689 0.003914 0.178903 0.091473 -0.095198 0.359186 -0.028482 0.514598 -0.318149
will 0.134271 -0.122684 0.238710 -0.184594 0.284350 0.220178 -0.147754 -0.112393 0.014717 0.163802 -0.011978 -0.309122 -0.033431 -0.102742 -0.392575 -0.236625 0.257113 0.040133 -0.043240 -0.047525 -0.654830 0.123034 0.902709 0.000348 -0.442539 0.058100 -0.072674 0.110889 0.389423 -0.024872 0.132374 -0.237354 0.086802 -0.101630 0.037545 -0.282768 0.204353 0.077677 -0.168655 -0.275794 0.085110 0.188867 -0.032344 -0.006380 0.415467 -0.421886 -0.383419 0.343051 0.197434 0.155787 0.130512 0.019801 -0.250178 0.430839 -0.218442 -0.197340 0.025190 -0.046794 -0.383678 -0.077711 -0.077252 -0.151383 0.110103 0.228858 -0.023155 -0.245906 0.098904 -0.051089 0.047657 -0.006284 0.348488 0.064189 -0.264825 -0.055657 0.244064 -0.096781 0.061500 -0.185794 0.362533 -0.408285
who 0.287484 -0.087166 0.117508 -0.262546 -0.103834 0.307412 -0.099630 -0.095174 -0.325725 0.356332 -0.345457 -0.297180 0.442550 0.096659 -0.216460 -0.169145 0.075078 -0.089864 0.232553 -0.067943 0.039245 0.230857 0.237621 -0.213488 -0.096931 0.092741 -0.370514 -0.079313 0.039492 0.516993 0.201764 -0.114607 0.139187 0.185013 -0.016983 -0.199959 -0.198699 0.440702 -0.321871 0.056025 0.041171 0.230864 -0.277690 -0.343746 0.368207 -0.034755 -0.119933 0.224767 -0.134934 0.042200 0.323791 -0.000408 0.172860 0.050809 -0.033997 -0.134929 -0.008428 -0.062484 -0.197842 -0.072700 0.094512 -0.198667 0.358095 0.207693 -0.099622 0.112769 0.033442 0.170448 0.005606 -0.009451 0.014621 0.049243 -0.060644 -0.037445 0.175903 -0.244213 0.050144 0.008308 0.491313 -0.192914
their 0.479225 -0.256705 0.250969 -0.428357 0.077062 -0.095728 -0.293263 -0.137036 -0.303358 0.110203 -0.181375 -0.073475 0.208052 -0.050091 -0.326388 0.091312 0.067788 0.103916 -0.059633 0.026990 -0.397933 0.314851 0.399771 -0.449315 -0.248354 0.265923 -0.339166 -0.343698 0.342527 0.441255 0.072974 -0.082649 0.036640 -0.195902 -0.077609 -0.119943 -0.001105 0.169064 0.176833 -0.068575 0.195508 0.415334 -0.179903 -0.279671 0.425440 -0.449195 -0.466475 0.414690 -0.104958 -0.002293 0.084168 0.063683 -0.340768 -0.040121 0.003548 0.116854 -0.010987 -0.237858 -0.120399 0.137109 -0.013546 -0.207381 0.076850 -0.076242 -0.131595 0.139881 0.005652 0.040476 -0.154904 0.260053 0.225608 0.235819 -0.137695 -0.285262 0.202233 -0.367537 0.299997 0.075934 0.331124 -0.188530
had 0.039126 -0.167134 0.214098 -0.068166 -0.209296 0.268988 0.008784 0.062861 -0.195672 0.406543 -0.078650 0.025125 0.266143 -0.154253 -0.100762 -0.055101 0.083103 -0.014979 0.100574 -0.000150 -0.084731 0.392374 0.342170 -0.143623 -0.136547 0.211906 -0.344064 -0.167012 0.264312 0.582711 0.134936 0.003331 0.333464 0.277562 -0.005949 -0.631205 0.079072 0.467996 -0.084271 -0.015786 0.162292 0.104566 -0.084915 -0.206820 0.020618 -0.292436 -0.257540 0.326904 -0.018028 0.343456 0.069083 -0.183452 0.025954 -0.265681 -0.046754 0.127161 -0.257379 -0.109370 -0.123493 -0.080622 0.201901 -0.071590 0.230399 0.290630 0.021524 0.056120 -0.098621 0.121759 -0.592468 0.169013 0.264602 -0.219858 0.019072 0.005320 -0.036649 -0.253200 0.044427 -0.082722 0.495135 -0.107729
more 0.218003 -0.140024 0.362699 -0.168089 0.252610 -0.268523 -0.011656 0.154668 -0.241543 0.411417 -0.042543 -0.170204 0.432548 -0.234833 -0.013915 -0.287400 0.130210 -0.118256 -0.008624 -0.002077 -0.369494 0.098331 0.552209 -0.268450 0.062155 -0.024613 -0.224048 -0.192443 0.434320 0.432272 -0.029488 -0.437936 0.032319 -0.017534 -0.282131 -0.066538 -0.241117 0.262780 -0.112870 -0.164095 -0.207144 0.357459 -0.153895 -0.150894 0.246099 -0.148884 -0.256635 0.198368 -0.082789 0.320241 -0.095276 -0.326397 -0.200043 -0.313445 0.124619 0.169836 -0.062731 0.114405 0.059148 -0.185391 0.076035 -0.036982 0.294534 0.042435 -0.016014 -0.306843 0.221071 -0.193373 -0.062001 0.187213 0.145971 -0.015316 -0.403403 0.156612 0.409650 -0.208392 0.051876 -0.097212 0.414485 -0.166829
were 0.219453 -0.223512 0.335727 -0.179099 -0.045773 0.102279 -0.087249 0.156713 -0.036723 0.440141 -0.051966 0.145361 0.225938 -0.085641 -0.113646 -0.023510 -0.034322 -0.073987 0.205947 0.202998 -0.129041 0.294974 0.632911 -0.159670 -0.174963 0.113538 -0.471772 -0.249934 0.160604 0.610845 -0.026482 -0.007017 0.065528 0.124944 -0.195745 -0.303134 -0.474736 0.173976 0.060339 -0.242784 0.068004 0.288479 0.031295 -0.169281 -0.151213 -0.358436 -0.303340 0.269193 -0.006939 0.050966 0.289809 0.169424 -0.147713 -0.284563 0.059914 0.068049 -0.526015 -0.170603 0.013922 0.019927 0.245418 -0.091868 0.405744 -0.010577 -0.008668 -0.086787 0.015173 -0.101693 -0.477931 0.199495 0.356783 0.024328 -0.071576 -0.007381 -0.039015 -0.630564 0.072321 0.091324 0.350403 -0.182518
or 0.158284 0.017550 0.414803 -0.234723 0.067937 -0.058575 0.006839 0.278371 -0.302748 0.242145 0.043515 -0.064094 0.035246 -0.217585 -0.050913 -0.226356 -0.040146 0.089168 -0.341223 -0.135116 -0.262539 0.065729 0.611585 -0.190707 0.117061 0.042446 -0.124315 -0.265707 0.608256 0.230757 0.121994 -0.154495 0.084811 -0.354550 -0.155507 -0.282204 -0.026439 0.301271 -0.005743 -0.138050 0.074536 0.201482 -0.188298 -0.155985 0.374747 -0.415385 -0.465565 0.275307 -0.078173 -0.248389 0.334962 0.108073 -0.124503 -0.350784 -0.335005 -0.003971 0.033653 0.046289 -0.114737 -0.102686 0.176052 -0.271822 0.396378 0.100965 -0.134272 0.024712 0.261923 -0.102627 -0.180605 0.130818 0.111865 -0.033734 -0.053714 -0.015947 0.131743 -0.237911 -0.033798 -0.048005 0.217552 -0.281454
you 0.038478 -0.088762 0.218509 -0.357028 0.401798 -0.232036 0.007916 -0.218287 -0.232572 0.307676 0.172534 -0.213043 0.055571 0.017902 0.080907 -0.514521 0.099738 -0.230869 -0.343663 -0.264869 -0.217769 0.049203 0.987692 -0.108992 -0.038453 0.306202 -0.342697 -0.313843 0.814833 0.091115 0.470418 0.146674 -0.007062 -0.068932 0.263914 0.123617 0.336721 0.380204 0.053435 -0.146682 0.278119 0.061551 -0.020945 -0.112859 0.522242 -0.359172 -0.430581 -0.164884 -0.117547 -0.227139 0.454571 -0.371715 -0.036671 -0.022828 -0.112066 -0.119670 0.423984 -0.181494 -0.382019 -0.337563 0.140679 -0.284793 0.033604 0.279912 -0.134063 -0.037258 0.599602 0.013002 0.145410 0.252738 0.041560 0.404960 0.037779 0.264821 0.192714 -0.181205 0.214155 0.012891 0.513235 0.007428
about 0.337293 -0.267616 0.140308 -0.111533 0.281379 -0.162282 -0.001236 0.100645 -0.225183 0.265168 0.150347 -0.114098 0.353550 0.012491 0.038480 -0.002208 0.188591 -0.050428 0.109030 0.374797 -0.205670 0.342982 0.650945 -0.490083 -0.031417 -0.133575 -0.004852 -0.151814 0.530289 0.474069 0.178797 -0.161204 0.050271 0.210131 -0.329554 -0.165259 0.134086 0.188068 -0.395330 -0.038391 -0.050969 0.015978 0.049159 0.118482 0.427798 -0.203911 -0.048296 0.233960 -0.406548 0.011146 0.391258 -0.125123 -0.206987 -0.514278 0.048971 0.189413 -0.081334 -0.035458 -0.019591 -0.110768 0.390003 -0.365426 0.129208 0.171182 -0.215023 -0.192912 0.248287 0.036133 -0.242402 0.221046 0.223261 -0.043450 0.059782 -0.003961 -0.107829 -0.022947 0.132000 -0.122197 0.346129 -0.135647
been -0.166349 -0.160733 0.271278 -0.049453 -0.171619 0.305050 -0.172726 0.187040 0.106066 0.302269 0.044702 -0.044446 0.367018 0.002567 -0.153773 0.046623 0.101100 -0.234677 0.109413 -0.032377 0.050149 0.419448 0.277172 -0.104828 0.119253 0.049873 -0.238094 -0.118313 0.290990 0.526160 0.022614 -0.013626 0.094692 0.372421 0.024527 -0.305049 -0.147114 0.599081 -0.119700 -0.247665 0.163993 0.248877 0.043756 -0.109155 0.105962 -0.343646 -0.186362 0.300635 0.090836 0.400430 0.060188 -0.321969 -0.199773 -0.028459 0.052566 0.442042 -0.507413 -0.112282 -0.280507 -0.002250 0.252312 -0.056561 0.201405 0.273330 0.033130 -0.093074 0.187440 -0.013427 -0.454337 0.246059 0.333769 -0.212803 -0.188886 0.140990 -0.003163 -0.344429 0.007198 -0.099983 0.473021 -0.158820
new 0.099942 -0.031092 -0.187246 -0.077922 0.288110 0.026850 -0.507686 0.178202 -0.336497 0.170361 -0.161114 -0.242247 0.238938 -0.012206 -0.365368 -0.245158 -0.108565 -0.094314 -0.179447 0.029548 -0.321348 0.267596 0.563917 -0.564608 -0.567579 0.193197 -0.351806 -0.140577 0.122437 0.087524 0.048973 -0.328204 -0.496861 0.073817 0.048013 -0.061694 0.229516 -0.005441 -0.140014 0.012740 -0.025576 0.431211 -0.180658 -0.059397 0.162465 -0.050977 -0.061053 0.423881 0.034692 0.349932 0.344380 -0.370022 0.059389 0.156823 -0.126666 0.053935 -0.073499 0.341997 -0.128909 -0.090043 -0.031699 0.154579 0.139249 0.215738 0.065434 -0.074370 0.121797 -0.178276 -0.069876 0.272506 0.324380 -0.260514 -0.302747 -0.032299 0.023046 -0.145859 -0.377247 -0.182363 0.357222 0.068104
which 0.149815 -0.018762 0.430308 -0.104584 -0.077302 -0.064854 -0.248478 0.185092 -0.279215 -0.024980 -0.049645 0.025563 0.296493 -0.091651 -0.255505 -0.204411 -0.109810 0.138940 -0.131722 -0.201677 -0.081393 0.184324 0.428482 -0.378908 -0.124991 -0.119584 -0.023707 -0.262675 0.237793 0.401190 -0.064701 -0.155690 -0.067480 0.068860 -0.073806 -0.208323 0.051195 0.117514 -0.211538 -0.096350 0.009282 0.143793 -0.236165 -0.058106 0.464398 -0.329746 -0.033215 0.334608 0.105943 0.281861 -0.006244 -0.063718 0.015557 -0.078540 -0.110286 -0.119215 -0.114391 0.010314 -0.111216 0.122166 0.305744 -0.160777 0.275051 0.067686 0.083416 -0.212414 0.238592 -0.088540 -0.232045 0.125536 0.222703 -0.161669 -0.317634 -0.095654 0.043533 -0.227011 0.011752 -0.074684 0.157221 -0.070698
its 0.410268 -0.194326 0.570826 0.002542 0.034948 0.006090 -0.317877 0.398945 -0.040706 -0.126132 0.062797 0.014890 0.184815 -0.259012 -0.396510 0.168368 0.120875 0.187058 -0.280100 -0.020339 -0.119455 0.285468 0.480602 -0.467861 -0.171319 -0.068669 -0.055741 -0.097198 0.556700 0.189724 -0.024316 -0.330987 0.004539 -0.121439 0.067772 -0.338368 0.374687 -0.023393 -0.103183 0.000862 0.078536 0.371675 -0.219536 -0.096351 0.307460 -0.386898 -0.001610 0.539993 0.318900 0.271010 -0.267548 -0.173724 0.017057 -0.127719 0.021466 0.060478 0.006879 0.005552 -0.091940 0.362011 0.218849 -0.177835 0.043053 0.101977 0.201831 -0.283937 0.163259 -0.112952 -0.078552 0.258478 0.281568 0.010491 -0.406232 -0.308467 0.031026 -0.059550 0.180980 -0.318480 0.163297 -0.098617
one 0.217150 -0.078429 0.237224 -0.170698 0.112453 0.063181 -0.207582 0.074744 -0.196535 0.344916 -0.102662 -0.038885 0.422323 0.004167 -0.243557 -0.391116 0.055877 -0.031096 0.178840 -0.147776 0.040245 0.093227 0.525098 -0.141401 -0.021827 -0.017036 -0.153182 -0.278979 0.395167 0.395530 -0.104746 0.108276 -0.017495 0.112457 0.014835 -0.249766 0.064651 0.400043 -0.141969 -0.041807 0.163628 0.184238 -0.218965 0.080844 0.395443 0.115863 -0.062274 0.169802 0.050939 0.100363 0.170221 -0.137583 0.130769 -0.065254 -0.143685 -0.138770 -0.134468 -0.208844 -0.098593 0.006113 -0.026311 -0.072174 0.318152 0.298625 0.027553 -0.216651 0.261692 0.131585 -0.154964 0.105325 0.042148 0.130246 -0.146508 -0.099710 0.088019 -0.276216 -0.033570 -0.204914 0.387206 0.096418
would 0.200082 -0.115789 0.344703 -0.072630 0.093585 0.196583 0.187319 -0.033410 -0.085074 0.205175 -0.223956 -0.116555 0.090527 -0.291995 -0.062821 -0.270626 0.159484 0.074086 -0.159783 -0.078904 -0.496964 0.074712 0.789672 0.010780 -0.281844 0.077676 -0.108166 -0.160497 0.529532 0.242894 0.070285 -0.251334 0.331456 -0.013509 0.158431 -0.300352 0.322922 0.486091 -0.322252 -0.115485 0.204006 0.120665 -0.017413 -0.193677 0.364493 -0.456800 -0.419888 0.328943 0.063431 0.274961 0.103245 -0.058547 -0.162672 0.301131 -0.113300 -0.219046 -0.072910 0.055485 -0.146066 -0.076297 -0.002918 -0.285197 0.226394 0.440090 0.078072 -0.083996 -0.088918 -0.097502 -0.105116 0.057945 0.577675 -0.086987 -0.127773 0.248804 0.127289 -0.124206 -0.041340 -0.140537 0.387762 -0.222822
after 0.074448 -0.175852 0.154915 -0.396202 -0.075277 0.187673 -0.353160 0.205933 -0.298896 -0.048324 -0.092892 -0.057971 0.199899 -0.170105 -0.322602 -0.001062 -0.020183 -0.144736 0.028151 0.080450 0.063460 0.483361 0.610463 -0.150461 -0.406335 -0.125206 -0.285712 -0.346497 0.268400 0.440120 0.071765 0.189391 0.343551 -0.001929 -0.183544 -0.510389 -0.089306 0.170125 -0.358146 0.052639 0.135227 0.070910 -0.396881 0.046166 -0.171625 -0.167900 -0.329872 0.450809 0.247008 0.299404 0.160254 -0.358058 0.141913 -0.116835 0.062602 0.123603 -0.278760 0.095437 0.049430 0.088667 0.279234 -0.244453 0.085828 0.244932 0.025894 -0.093143 -0.276289 0.026645 -0.386169 0.022444 0.128290 -0.287678 0.092376 -0.209197 0.256388 -0.267221 0.015149 -0.104265 0.456457 -0.252769
up 0.454296 0.045249 0.317657 -0.288586 -0.068467 -0.237408 -0.298279 0.127117 -0.538792 0.101466 0.191576 -0.137771 0.005042 -0.092899 -0.204218 -0.244733 -0.064950 0.011661 0.023504 0.172498 -0.114418 0.455445 0.619742 -0.217381 -0.251224 -0.056265 -0.108174 -0.086826 0.232467 0.516353 0.107882 -0.014807 -0.019470 0.026365 -0.034875 -0.087570 0.133818 0.023826 -0.126424 -0.045248 0.040519 0.063341 -0.254478 -0.018690 0.284036 -0.086475 -0.386378 0.202482 0.180087 0.184657 0.144994 -0.393890 -0.115971 -0.200998 -0.142218 -0.054313 0.104201 0.183484 -0.073468 -0.001229 0.188972 -0.121448 0.323363 0.027240 0.082604 -0.057519 0.126653 -0.052015 -0.206686 0.157467 0.206745 0.014547 0.052580 0.042061 0.337323 -0.096468 0.371542 0.309292 0.641872 0.018236
there -0.020439 0.033849 0.317387 -0.104833 0.047651 0.050563 -0.136122 -0.096237 -0.140884 0.213023 0.272832 -0.145850 0.263099 -0.157012 -0.164557 -0.254476 0.214237 -0.382821 0.065918 0.049450 -0.603146 -0.029101 0.853607 0.060771 0.249253 -0.021561 0.022143 -0.289129 0.460627 0.391289 0.009304 0.174414 -0.071327 0.235659 0.041683 -0.232990 0.156232 0.295827 0.104942 -0.003937 0.145475 -0.062361 0.171710 0.071204 0.314213 0.092667 -0.156543 0.227085 -0.177732 0.176314 0.482978 0.068984 -0.161848 -0.151851 -0.125529 0.102184 -0.047842 -0.188448 -0.173665 -0.273792 0.396571 0.138866 0.143953 0.267200 -0.286952 -0.110264 0.426970 0.142761 -0.249915 0.030107 0.398468 -0.028012 -0.225010 0.195169 -0.027122 -0.451231 -0.028033 -0.253807 0.398752 -0.118417
when 0.214089 -0.169897 0.213070 -0.378557 0.061909 0.156908 -0.305297 -0.157868 -0.340943 0.196720 -0.158453 -0.154392 0.217564 0.043980 0.017021 -0.165376 -0.168014 0.004580 0.090424 0.010046 0.088168 0.364817 0.654693 -0.207266 -0.259536 0.022009 -0.332030 -0.347317 0.378375 0.528462 0.275306 0.158493 0.162059 0.221461 -0.191516 -0.092148 -0.008916 0.108491 -0.141786 0.043255 0.255991 -0.067099 -0.178629 -0.159230 0.219207 -0.200642 -0.178228 0.119753 0.091408 0.129619 0.120476 -0.185288 0.232368 -0.063479 -0.101870 -0.111178 0.019336 0.022870 -0.119954 -0.167887 0.273296 -0.374297 0.215865 0.263076 0.039228 -0.044745 0.057123 -0.021362 -0.366296 0.196848 0.098432 -0.281379 0.033229 -0.007559 0.293710 -0.201293 0.037901 0.128859 0.473110 -0.170579
out 0.326195 0.308307 0.437813 -0.117489 -0.067105 -0.124693 -0.207429 0.028060 -0.369504 0.031644 0.142865 -0.259421 0.260364 0.091533 -0.267302 -0.263687 -0.181256 -0.058262 0.016472 -0.003758 -0.026954 0.402826 0.671648 -0.178339 -0.150838 -0.073660 -0.106691 -0.494036 0.227926 0.529811 0.200914 0.063361 0.100281 0.157015 0.120502 -0.380077 0.144193 -0.004134 0.002374 -0.004036 0.115151 -0.012977 -0.286895 -0.155531 0.209420 0.011484 -0.427280 0.154461 0.027410 0.183674 0.264106 -0.160349 -0.055060 0.082992 0.013078 -0.077714 -0.045399 -0.065464 -0.056917 -0.011641 0.267419 -0.170763 0.121123 0.145269 0.004978 0.075137 0.141933 0.167593 -0.170027 0.212521 0.136263 0.140581 -0.028014 0.073441 0.305308 -0.201653 0.240754 0.076680 0.590062 0.007549
$ 0.584042 -0.010469 0.505414 0.316530 -0.246783 -0.549574 -0.040612 0.720501 -0.483282 0.421191 -0.444722 0.116933 0.344474 -0.083580 -0.609096 -0.149672 -0.091268 -0.076757 -0.547526 0.252085 -0.459369 0.097099 0.693004 -0.163157 0.064948 -0.132384 -0.015674 0.275161 0.497569 0.060157 0.393286 -0.476596 0.073445 0.106585 -0.245481 -0.193013 0.166891 0.276248 -0.384843 -0.007134 -0.106681 0.127146 -0.495047 -0.137419 0.217971 -0.621383 -0.184311 0.083497 -0.101656 0.238726 0.007705 -0.450355 0.156730 -0.163030 0.152704 -0.380871 -0.287170 0.654899 -0.237575 -0.133018 0.173445 0.061543 0.048247 -0.423004 0.388989 -0.324045 0.461972 -0.530100 -0.351631 -0.570140 0.307864 -0.263237 0.377082 -0.353292 0.112294 0.304896 0.228388 -0.195848 0.601904 -0.143799
than 0.270025 -0.243962 0.435062 -0.101883 0.266834 -0.263584 0.001537 0.331771 -0.262545 0.391629 -0.196471 -0.172735 0.494674 -0.255253 0.042756 -0.277007 0.035018 -0.046152 0.026840 -0.006385 -0.366620 0.107786 0.556761 -0.082771 0.047747 0.048045 -0.281887 -0.110920 0.432973 0.579432 -0.299726 -0.511288 0.086804 0.021919 -0.407593 -0.347429 -0.171324 0.368059 -0.152742 -0.309253 -0.247221 0.363324 -0.095614 -0.148864 0.139809 -0.158116 -0.238632 0.164320 -0.024838 0.261895 -0.019629 -0.371635 -0.166215 -0.372677 0.169246 0.112260 -0.066562 0.094358 0.145387 -0.359355 0.032426 -0.013955 0.361151 0.010473 0.044698 -0.307005 0.252142 -0.308174 -0.232727 0.069006 0.094566 -0.151145 -0.256578 0.119265 0.417510 -0.235305 0.023674 -0.209776 0.439613 -0.135517
people 0.399511 -0.088506 0.257618 -0.237034 0.163307 -0.283146 -0.064196 -0.110102 -0.031425 0.250624 -0.150186 -0.118213 0.223105 -0.208045 -0.012843 -0.446064 0.084689 -0.481346 -0.140325 -0.228263 -0.045462 0.262966 0.826830 -0.458985 -0.009113 -0.147199 -0.413362 -0.275501 0.211787 0.612655 0.225526 -0.086669 0.122842 -0.062103 0.248784 -0.009406 -0.230994 0.489603 -0.340284 -0.195379 0.119352 0.317045 0.243619 -0.211334 -0.198430 -0.070378 -0.227478 0.065966 -0.320770 -0.166711 0.367681 -0.042206 -0.304155 -0.107488 0.081410 0.196238 -0.015864 -0.177228 -0.122591 -0.006051 0.267527 -0.127372 0.401423 -0.069803 -0.120452 -0.137209 0.396950 0.266565 0.124998 0.207663 0.229203 0.030479 -0.312754 0.269940 0.014335 -0.397931 0.385107 -0.265594 0.399505 -0.324515
she 0.110591 -0.338314 0.034113 -0.385572 -0.025757 -0.175325 0.141925 0.099023 -0.175879 0.503793 0.000777 0.214550 -0.286092 -0.088418 0.037029 0.091175 -0.045369 -0.193607 -0.012874 -0.229465 0.101644 0.166504 0.465331 -0.311053 0.288305 0.063242 -0.427700 -0.227363 0.438730 0.539741 0.662303 0.150441 0.221906 0.277914 -0.093000 -0.529573 -0.044711 0.440326 -0.233172 0.051320 0.108307 0.029271 -0.193877 -0.513699 0.164961 -0.136116 0.152584 0.322039 -0.264614 0.236600 0.260397 -0.414884 -0.033689 0.157563 -0.373516 0.044582 0.252688 -0.214818 -0.322430 -0.239326 0.564246 -0.408027 -0.225423 0.103838 -0.355145 0.039107 0.174183 0.004240 -0.035763 0.340867 0.011764 -0.124830 -0.031297 0.011882 0.127278 -0.073790 0.037899 -0.180061 0.622503 0.051407
also 0.179815 -0.064252 0.286379 -0.157261 -0.109372 0.024633 -0.126308 -0.047866 -0.223302 0.145609 -0.165741 0.042095 0.335790 0.035047 -0.349602 -0.203544 0.076214 -0.012491 0.037256 0.017190 -0.203749 0.237475 0.276765 -0.304646 -0.146681 0.000003 -0.076779 -0.028991 0.205365 0.367919 0.140815 -0.125672 0.000326 0.103449 0.100087 -0.199230 -0.015299 0.206278 -0.128198 -0.068299 -0.097415 0.189850 -0.299490 -0.193667 0.301333 -0.184863 -0.076492 0.459320 0.036361 0.311994 0.029187 0.031312 0.075918 -0.055937 -0.194086 -0.128462 -0.090825 -0.086132 -0.100933 0.133972 0.190784 -0.201767 0.202186 0.246718 -0.075983 0.020486 0.025698 -0.105404 -0.198867 0.121833 0.261965 -0.042260 -0.337346 -0.023164 0.005481 -0.281244 -0.126531 0.030321 0.350017 -0.191161
all 0.133848 0.094566 0.447629 -0.242960 -0.003850 0.112100 -0.096977 0.055272 -0.227126 0.205310 -0.049223 -0.127925 0.224386 0.100706 -0.241278 -0.259051 -0.023408 -0.086199 0.034223 -0.057360 -0.200033 0.061165 0.670220 -0.324518 0.024088 0.090995 -0.048339 -0.365610 0.358901 0.577109 0.124591 0.099221 -0.255997 0.042860 -0.020129 -0.110686 0.042835 0.122341 0.099605 -0.211693 0.112760 0.260468 -0.099287 -0.036758 0.394443 -0.284017 -0.117526 0.139054 -0.109259 0.020290 0.168573 -0.135015 -0.253971 -0.168686 -0.046730 -0.039140 -0.019077 -0.246563 -0.178280 -0.181969 0.076611 0.044763 0.230001 0.093992 -0.220145 0.012830 0.098920 -0.076456 -0.132893 0.276262 0.315047 0.072917 -0.028193 -0.100108 0.162186 -0.141804 0.154405 -0.110412 0.283132 -0.149478
' 0.018234 -0.330050 0.485897 -0.241785 0.380367 0.364314 -0.087492 -0.061633 -0.237424 -0.163538 0.180992 0.091016 0.084925 0.119720 -0.092364 -0.223437 0.391223 -0.274245 -0.113588 0.233555 0.150014 0.252525 0.606948 -0.355686 -0.171268 0.219118 -0.035200 -0.442431 0.188790 0.368118 -0.079379 -0.113036 0.165666 0.165874 0.076071 0.018939 -0.030746 -0.169481 0.031495 -0.012346 0.010152 0.100157 -0.359180 0.036230 0.455562 -0.118474 -0.234466 0.121828 -0.393256 0.115223 0.555399 -0.313993 -0.005548 0.123149 -0.467717 0.003140 0.022650 -0.227871 -0.283494 0.390108 -0.039407 -0.349746 0.054002 0.342236 -0.020448 0.024950 0.168028 -0.122733 -0.303288 -0.226754 0.225905 0.308303 0.097311 -0.365814 0.117976 -0.190728 0.258798 0.063397 0.207883 -0.127148
can 0.080996 0.022841 0.282997 -0.387256 0.241201 0.055690 -0.009626 0.067672 -0.132527 0.303417 0.103557 -0.215207 0.078462 -0.157901 -0.061124 -0.477467 0.223661 -0.016236 -0.151097 -0.364696 -0.477990 0.005321 0.754713 -0.169449 -0.115695 0.179279 -0.144065 -0.123207 0.745934 -0.028435 0.250251 -0.003769 0.208142 -0.227653 0.133060 0.165639 0.218399 0.200180 0.013123 -0.118020 0.139562 0.147527 0.039800 -0.265787 0.574853 -0.392438 -0.676495 -0.112158 -0.050052 0.104100 0.149416 -0.018051 -0.177692 0.168130 -0.215049 -0.008312 0.136810 -0.290404 -0.371325 -0.229647 0.031418 -0.169572 0.175980 0.330107 -0.066900 0.127841 0.376184 0.086268 -0.016876 0.171516 0.167792 0.192433 -0.137323 0.119613 0.226546 -0.064084 0.002689 -0.145705 0.355439 -0.343796
— 0.338540 -0.046048 0.035429 -0.101656 0.203411 -0.182308 -0.299726 0.238166 -0.267807 0.217112 -0.024595 -0.352615 0.395569 -0.097191 0.038490 -0.142224 0.066629 0.108400 -0.055521 -0.065944 -0.142233 0.067712 0.535189 -0.292583 0.084959 -0.079027 -0.215828 -0.211148 0.338645 0.447727 0.058454 -0.205599 -0.084395 0.102305 -0.214620 -0.142869 0.030918 0.318407 -0.114905 -0.098815 0.091708 0.325499 -0.087171 -0.085144 0.428621 -0.092228 -0.294609 0.450209 0.179132 0.086337 0.270276 -0.048266 0.307980 -0.055629 -0.174132 -0.016960 -0.181446 -0.050790 -0.216268 0.051854 0.137569 0.121318 0.291330 0.110419 -0.077697 0.047934 0.084830 -0.117313 -0.070630 0.228483 0.236228 0.098569 -0.071696 0.036418 -0.014609 -0.072666 -0.107910 -0.233829 0.219818 0.089692
her 0.296148 -0.507638 -0.124335 -0.313065 -0.063366 -0.323671 0.009355 0.140128 -0.225987 0.353390 0.134448 0.303291 -0.361481 -0.107725 -0.087734 0.301724 -0.059055 -0.250068 0.027332 -0.376530 0.144090 0.348746 0.275732 -0.437589 0.148177 0.201582 -0.343879 -0.122538 0.402911 0.366813 0.681411 0.159158 0.178800 -0.046171 -0.182283 -0.626368 -0.117180 0.378842 -0.323901 0.201013 0.110102 -0.012005 -0.283179 -0.498462 0.105015 -0.209195 -0.108358 0.636459 -0.025771 0.231544 0.199779 -0.385287 0.108702 0.231642 -0.591841 0.137849 0.308661 -0.208541 -0.297664 -0.083623 0.345462 -0.386911 -0.431161 0.022890 -0.294051 0.149749 0.068539 0.114492 -0.092106 0.256716 -0.074267 0.107018 0.019999 -0.084304 0.141831 -0.192944 0.187300 -0.222444 0.578922 -0.058589
if -0.078326 0.053392 0.411297 -0.417932 0.126973 0.220566 0.044011 -0.020891 -0.297900 0.149234 -0.139084 -0.163657 0.190963 0.063286 -0.028473 -0.308592 0.010535 -0.017051 -0.146954 0.056518 -0.369770 -0.014834 0.891959 -0.096171 0.040434 0.034817 -0.197469 -0.254977 0.601873 0.297107 0.165080 0.105448 0.212432 0.065897 -0.129420 -0.054592 0.199227 0.395515 0.032396 -0.116535 0.118511 0.102885 -0.100231 -0.373719 0.489806 -0.228970 -0.314576 0.198433 0.013270 0.031110 0.206222 -0.100663 -0.044425 0.185875 -0.159025 -0.182030 0.021734 0.035723 -0.279223 -0.260468 0.189231 -0.427950 0.291847 0.510603 -0.036876 -0.012590 0.345528 -0.046586 0.091212 0.148668 0.343579 0.009573 -0.076418 0.185585 0.178308 -0.208054 0.015201 0.024438 0.490815 -0.101887
't 0.027143 0.054753 0.368858 -0.188597 0.278081 0.159809 0.229350 -0.183526 -0.264971 0.157493 0.057704 -0.248041 0.209534 -0.130076 -0.042668 -0.188076 0.342302 0.161254 -0.072166 -0.004767 -0.214013 0.219054 0.900650 0.050008 0.110587 -0.170495 -0.382291 -0.174251 0.382985 0.604456 0.542088 0.086724 0.275093 0.013360 0.194897 0.062195 0.269824 0.210913 0.157903 0.081251 0.450030 -0.004564 0.069968 -0.551992 0.688015 -0.326086 -0.377642 -0.229452 -0.167932 0.020554 0.575199 -0.124820 0.057607 0.112944 -0.455256 -0.008596 0.003196 -0.318823 -0.684462 -0.374546 0.321026 -0.248857 0.312273 0.643746 -0.128006 0.204116 0.097124 0.033968 -0.119181 -0.015717 0.252254 -0.205621 -0.094426 -0.081572 -0.000307 0.011915 0.235362 -0.169433 0.519121 -0.149942
over 0.246371 -0.071814 0.180688 -0.468940 0.177925 -0.124235 -0.181119 0.111288 -0.561135 -0.047994 0.124348 -0.311242 0.293361 -0.079275 -0.323514 0.197834 -0.020406 -0.073391 -0.080353 0.090529 -0.122434 0.371055 0.624545 -0.173122 0.072425 0.108721 0.165264 -0.283104 0.135822 0.502948 -0.076635 -0.128971 -0.065017 0.136644 -0.234596 -0.321417 0.202298 0.137706 -0.288590 -0.204653 0.181650 0.233855 -0.210301 0.052136 0.388468 -0.183391 -0.396072 0.305803 -0.167376 0.428156 -0.171000 -0.277871 0.003797 -0.233498 0.008209 0.057427 -0.215205 0.084658 0.066591 0.286452 0.183290 -0.156894 -0.052761 0.365481 0.047349 -0.184945 -0.028532 0.021106 -0.463920 -0.004769 0.178801 -0.194012 0.135374 -0.179962 0.124791 -0.136425 0.280416 -0.196239 0.318385 -0.316178
year 0.275923 -0.007612 0.224005 -0.248972 0.126937 -0.047147 -0.226081 0.194020 -0.093751 0.244515 -0.335307 0.075503 0.418346 -0.116693 -0.553897 -0.228775 0.061415 0.066576 0.166316 0.120747 -0.081293 0.151414 0.573359 0.063531 -0.195647 -0.180164 -0.075232 -0.054684 0.328271 0.391735 -0.109195 -0.055859 0.248488 0.234143 -0.132223 -0.117927 -0.099466 0.045513 -0.443567 -0.261994 0.079965 0.382304 0.116209 0.044414 0.046216 -0.628182 0.040350 0.544297 0.145348 0.307669 0.050725 -0.756645 0.064204 -0.162970 -0.030118 -0.332842 -0.118100 0.052268 -0.216095 -0.179293 0.183122 -0.261389 0.216272 0.102729 0.464757 -0.239988 0.228635 -0.472464 -0.247803 -0.385241 0.135009 -0.374735 0.004186 -0.096748 0.208043 0.008650 0.173864 -0.264113 0.634908 -0.300108
two 0.176983 -0.174875 0.093921 -0.532692 -0.038094 0.199561 -0.368975 0.113165 -0.464982 0.416317 -0.283397 -0.096461 0.449200 0.073402 -0.374417 -0.229721 -0.083679 0.160578 0.149070 -0.031808 -0.203178 0.157234 0.545318 -0.206119 -0.038595 0.033088 -0.104594 -0.478648 0.004157 0.626976 0.073724 -0.048490 0.045151 0.031627 -0.253769 -0.324227 -0.264419 0.088791 -0.145783 -0.183951 0.093746 0.185876 -0.221529 0.022587 0.330729 -0.228115 -0.244947 0.232688 0.020128 0.329621 0.018656 -0.111030 0.055580 -0.323968 -0.092318 -0.074549 -0.425604 -0.148158 0.223243 -0.091037 -0.155397 0.296514 -0.019376 0.337494 0.010352 -0.274707 0.132314 0.063526 -0.367369 -0.043301 -0.033197 -0.098298 0.055825 -0.472570 0.033133 -0.322464 0.108246 -0.007840 0.529001 -0.114503
what -0.043517 0.092901 0.413698 -0.287294 0.356660 0.045024 -0.073920 -0.117963 -0.148111 0.325662 -0.156769 -0.113168 0.382963 0.107439 0.056957 -0.241998 -0.035555 -0.205153 0.025102 0.022795 -0.127652 0.024930 0.722370 -0.446513 0.055631 -0.146397 -0.301860 -0.296683 0.452938 0.502374 0.293027 0.020889 0.122631 0.303827 -0.055934 -0.021578 0.164551 0.279980 -0.069326 0.024941 0.026736 -0.180304 0.036191 -0.002089 0.662995 -0.147911 0.060145 -0.132439 -0.246859 -0.001396 0.190939 -0.344081 -0.050870 0.150741 -0.012944 -0.242048 0.195438 0.038180 -0.241419 -0.202501 0.363929 -0.458801 0.137638 0.334785 -0.004217 -0.109212 0.389651 -0.085511 -0.047602 0.464051 0.372343 0.151974 -0.108837 0.092475 0.060140 -0.350471 0.113660 -0.142539 0.287979 -0.202813
last 0.077848 0.007321 0.299014 -0.219527 -0.015827 0.000880 -0.281879 0.030683 -0.449138 0.097481 -0.162445 0.025852 0.311835 -0.179062 -0.453042 -0.043478 0.101427 0.081880 0.061521 0.019749 0.094995 0.426766 0.440575 0.042554 -0.254750 0.003009 -0.235345 -0.216927 0.150917 0.458148 -0.038271 0.115508 0.218627 0.227967 -0.162623 -0.309374 0.162109 0.138244 -0.463894 -0.277640 0.141942 0.164580 -0.044341 0.108902 0.081582 -0.434104 -0.107099 0.399480 0.076180 0.443434 0.277786 -0.552928 0.160339 -0.104660 0.137543 -0.039299 -0.143696 0.113826 -0.224085 0.076519 0.137955 -0.092198 0.177759 0.267588 0.226330 -0.324165 -0.124349 -0.179756 -0.511801 -0.104693 0.211418 -0.308592 -0.127383 -0.190740 0.154216 -0.149833 0.249537 -0.155795 0.622542 -0.141307
some 0.099392 -0.037482 0.329915 -0.345273 0.033854 -0.085549 -0.131597 -0.044922 -0.132231 0.251154 -0.091397 -0.058547 0.377896 -0.063064 -0.150696 -0.182282 0.010554 -0.096382 0.014888 0.259435 -0.388389 0.106791 0.373370 -0.352949 0.141891 0.167693 -0.180679 -0.448788 0.394056 0.539356 0.080875 -0.162401 -0.105568 0.054893 -0.033620 -0.018253 -0.028060 0.120466 0.034705 -0.161640 -0.024485 0.074422 -0.084054 -0.095236 0.421411 -0.279207 -0.330193 0.358014 -0.159985 0.354648 0.147291 0.089174 -0.049671 -0.098530 -0.014765 0.088356 -0.173206 -0.122127 -0.141334 -0.072924 0.357191 0.046100 0.324495 0.211121 0.021538 0.001305 0.184512 -0.091247 -0.066274 0.198458 0.293474 0.017722 -0.210245 0.087313 0.199439 -0.420794 0.132365 -0.190723 0.344239 -0.081643
no 0.035973 -0.016015 0.254537 -0.030002 -0.108637 0.094370 0.100432 0.055481 -0.350849 0.215750 0.171191 -0.076067 0.327245 -0.316660 -0.168758 -0.167527 0.251966 -0.154763 -0.262121 0.070084 -0.309588 0.021366 0.930357 0.058287 0.227591 -0.004645 -0.072655 -0.327372 0.425209 0.371298 0.103119 -0.122170 -0.023095 0.178065 -0.157116 -0.539870 0.328337 0.197548 0.319432 0.155707 0.071926 0.030380 -0.451540 -0.086271 0.200477 0.118952 0.036814 0.390745 -0.075952 0.068213 0.352495 0.032718 -0.174263 -0.116414 -0.136031 -0.003184 0.164072 -0.151481 -0.321625 -0.031350 0.101870 -0.053145 0.278222 0.295413 -0.463103 -0.161121 0.223454 0.288261 -0.366119 -0.034932 0.296770 -0.023801 -0.300885 0.077552 -0.019341 -0.439149 -0.177204 -0.430368 0.394585 -0.161328
first 0.343466 0.002592 0.153691 -0.126084 0.091811 0.015505 -0.377374 -0.009884 -0.424643 0.174752 -0.225881 -0.166226 0.376846 -0.145826 -0.276640 -0.261939 0.011537 0.101692 0.110835 -0.227235 0.120663 0.288421 0.594573 -0.047818 -0.420921 -0.029598 -0.356441 -0.278007 0.223727 0.279816 0.077698 0.012822 0.155707 0.261657 -0.108989 -0.507082 0.050021 -0.072906 -0.220296 0.075598 0.276197 0.060638 -0.128109 0.101683 0.212146 -0.108974 -0.118519 0.356611 0.260877 0.276587 -0.065314 -0.553776 0.053871 -0.035966 -0.105723 -0.148096 0.138229 -0.245128 -0.342885 0.011545 0.092721 -0.116151 0.178176 0.261741 0.078216 -0.322643 -0.119204 -0.054090 -0.403642 -0.095213 0.073884 -0.161556 0.012849 -0.423551 0.284347 -0.112869 -0.096336 -0.069939 0.412485 -0.023854
into 0.478523 0.008136 0.422532 -0.306973 -0.041693 -0.098406 -0.285547 0.148025 -0.363240 -0.086280 0.145215 -0.338335 0.225781 -0.279107 -0.038320 -0.018673 -0.319713 -0.191857 0.161946 -0.196310 0.060963 0.433327 0.721596 -0.207162 -0.197889 -0.150619 -0.170030 -0.489317 0.376245 0.134375 0.095341 0.142053 -0.129307 0.103509 0.029375 -0.414364 0.080558 -0.157490 0.071963 0.272974 -0.129641 0.099303 -0.249595 -0.055079 0.281073 -0.135717 -0.552772 0.152798 0.046317 0.313333 -0.033050 -0.116593 -0.022068 -0.154625 -0.235312 -0.018332 -0.205728 0.152340 0.000899 0.323115 0.437985 -0.363261 0.009985 0.090105 0.104714 0.108528 -0.014100 0.160574 -0.184699 0.321971 0.091838 -0.096866 -0.141331 0.008960 0.439469 -0.013678 0.071503 0.004440 0.415396 -0.028319
other 0.146933 0.097514 0.212468 -0.374945 -0.079687 -0.160708 -0.069468 0.208849 -0.221428 0.280243 -0.283305 0.017083 0.434429 0.027470 -0.240108 -0.374284 -0.036793 -0.070295 0.052386 0.027338 -0.355145 0.004285 0.532602 -0.410680 0.014523 0.029907 0.122277 -0.232958 0.277379 0.407407 0.251026 -0.309238 -0.343635 -0.062043 0.165755 -0.230933 -0.198846 0.194494 0.040108 -0.293009 -0.059969 0.102158 -0.134890 -0.139583 0.411226 -0.286859 -0.353234 0.317222 -0.121599 0.055854 0.244430 0.328282 -0.245987 -0.195196 -0.323630 0.022530 -0.220217 -0.139019 0.081165 0.115997 0.116798 0.059349 0.283017 0.155084 -0.037254 0.051402 0.065942 -0.147538 -0.308314 0.225436 0.091630 0.096728 -0.180135 -0.059098 0.171824 -0.480296 -0.085157 0.010625 0.468065 -0.162992
so 0.088997 0.074603 0.418801 -0.232349 0.127944 -0.023356 -0.025641 0.093230 0.005488 0.286423 0.095901 -0.096190 0.154858 0.066764 0.067185 -0.198780 0.178598 -0.055955 0.140450 -0.055595 -0.301530 0.140711 0.673822 -0.193207 0.152632 0.031699 -0.249875 -0.189373 0.603807 0.562630 0.167087 -0.002172 0.079188 0.235645 -0.115169 -0.022605 0.053667 0.302022 0.029685 -0.092541 0.205861 0.176108 -0.012795 -0.180990 0.431030 -0.286564 -0.197678 0.096520 -0.030050 0.152144 0.079038 -0.256827 -0.026721 0.054969 0.030047 0.114685 0.013657 -0.155484 -0.273884 -0.300633 0.283211 -0.224975 0.236312 0.209197 -0.024659 -0.035121 0.281063 -0.021542 -0.137285 0.347548 0.300605 0.008296 -0.127918 0.161659 0.343145 -0.221952 0.215724 0.046476 0.220738 -0.023092
time 0.196985 -0.006369 0.225828 -0.299005 0.260107 0.101658 -0.234811 0.062354 -0.196883 0.155890 0.003999 -0.107788 0.263651 0.043969 -0.271135 -0.177907 0.043686 -0.010597 0.084142 0.024894 -0.060471 0.120712 0.754515 -0.040515 -0.214203 -0.120327 -0.195452 -0.135582 0.454265 0.403328 0.223586 0.193425 0.220205 0.247180 -0.128389 -0.144937 0.039556 0.374393 -0.095535 -0.070299 0.235141 0.254652 -0.039397 -0.018293 0.283697 -0.314153 -0.140611 0.180773 0.014715 0.213677 -0.015074 -0.355328 -0.073923 -0.098943 0.013078 -0.062656 0.017984 -0.178153 -0.161832 -0.353729 0.264271 -0.070391 0.052698 0.152625 0.035159 -0.142592 0.138652 -0.077038 -0.053574 0.084059 0.133876 -0.073572 0.051239 -0.078026 0.248218 -0.115058 0.002584 -0.143253 0.311942 -0.251105
could 0.021737 -0.063015 0.277975 -0.318612 0.109945 0.047804 -0.158221 0.091050 -0.064523 0.130499 -0.164384 -0.006894 0.181956 -0.425786 -0.042175 -0.273367 0.137716 0.157364 -0.000741 -0.053979 -0.552927 0.151660 0.796070 0.017679 -0.132876 0.165177 -0.118961 -0.090005 0.580323 0.086351 0.095927 -0.157594 0.340482 -0.207868 0.139917 -0.369119 0.155286 0.184146 -0.275082 -0.104986 0.159370 0.020988 -0.074238 -0.216176 0.378649 -0.361682 -0.594025 0.287825 -0.030495 0.348383 0.107068 0.131120 -0.206816 0.171032 -0.308566 -0.094551 -0.201125 0.013490 -0.100911 -0.086853 0.163789 -0.285950 0.183572 0.532076 0.105886 -0.032946 0.092843 0.075133 -0.073389 0.060025 0.431411 -0.052791 -0.021280 0.308542 0.146539 -0.133636 -0.054206 -0.224714 0.434869 -0.265441
years 0.154528 -0.257493 0.071017 -0.580115 -0.031556 0.097096 -0.218692 0.366459 0.107975 0.151530 -0.163801 -0.259218 0.563915 0.025430 -0.278851 0.090853 -0.178107 -0.078368 0.120800 -0.300780 0.097465 0.233224 0.419708 0.031582 0.026582 -0.107830 -0.051043 -0.102901 0.339892 0.441901 -0.137043 -0.183169 0.144793 0.381870 -0.114516 -0.351577 0.028476 0.497443 -0.323202 -0.343864 0.174322 0.254419 0.115486 -0.247929 0.075388 -0.268307 -0.182214 0.365062 -0.117086 0.352385 0.313767 -0.945969 -0.211656 -0.331939 -0.040671 0.063021 -0.272050 0.112803 0.158026 -0.041658 -0.111365 0.192027 0.069668 0.210215 0.147099 -0.119477 0.238504 0.048350 -0.153047 -0.197529 0.133450 -0.282701 0.132243 -0.003004 0.280894 -0.061962 0.150010 -0.397066 0.482534 -0.414216
just 0.268842 -0.006546 0.322509 -0.194881 0.156942 -0.165316 -0.071372 0.063224 -0.288642 0.201758 0.137213 -0.211850 0.106480 -0.059262 -0.061544 -0.374845 0.093981 -0.117189 0.125509 0.021657 -0.132075 0.183340 0.648844 -0.067721 -0.063494 -0.092585 -0.273679 -0.292847 0.431900 0.620076 0.147810 0.144251 0.070412 0.184652 -0.143252 -0.144706 0.212643 0.223490 -0.092735 -0.099500 0.227077 0.141812 -0.011811 0.045172 0.372301 -0.137688 -0.215267 -0.007930 -0.040026 0.108430 0.253950 -0.438144 0.085788 -0.167493 -0.049992 -0.028796 0.076034 -0.004686 -0.200098 -0.234682 0.265735 -0.037873 0.156982 0.316298 -0.044974 -0.160412 0.223287 0.054778 -0.137185 0.267646 0.131164 -0.092662 0.100489 -0.022465 0.208287 -0.098143 0.222506 0.026877 0.345451 -0.002872
like 0.085676 0.147383 0.258581 -0.216749 0.085657 -0.075045 0.065367 0.052772 -0.167150 0.297152 -0.195753 -0.198815 0.238155 0.112255 0.041956 -0.481786 0.136470 -0.272389 0.120113 -0.137397 -0.148187 -0.019290 0.667424 -0.188519 0.167882 0.123372 -0.138773 -0.323763 0.559772 0.344420 0.183639 -0.174548 -0.253025 0.311742 0.230722 0.034950 0.021099 0.073313 0.068191 -0.206601 0.095139 0.000295 -0.197820 -0.115435 0.592433 -0.048217 -0.343801 0.067521 0.065793 0.079205 0.574923 -0.151724 0.117797 -0.015410 -0.221279 0.133036 0.081605 0.040757 0.028718 -0.085373 0.311971 0.004498 0.065828 0.314181 0.034096 0.131767 0.090738 -0.252387 0.043646 0.273734 0.009785 -0.012737 -0.090076 0.048730 0.204198 -0.189833 0.032044 -0.024993 0.142211 0.065325
? 0.041514 -0.069310 0.116572 -0.468398 0.534446 0.040045 -0.033139 0.032697 -0.074146 0.104364 0.106032 -0.203980 0.147765 0.208563 0.013673 -0.288258 0.244027 -0.315846 -0.357956 -0.080769 0.012130 -0.004347 0.954802 -0.087399 0.162579 0.093136 -0.186507 -0.311097 0.721044 0.185420 0.119594 -0.272615 0.184400 0.041282 -0.107886 0.034345 0.145142 0.090173 -0.157398 -0.154073 0.152466 -0.024315 -0.139218 0.105122 0.592757 -0.078911 -0.383229 -0.133664 -0.338511 -0.259255 0.505663 -0.442690 -0.073720 0.291954 -0.242975 -0.080753 0.374665 0.208057 -0.316651 -0.058336 0.251587 -0.469905 0.360334 0.268803 -0.147329 0.122132 0.645337 -0.065338 -0.220327 0.220121 0.187923 0.286611 -0.043763 -0.154224 -0.114467 -0.193574 -0.041921 -0.014415 0.239105 -0.237924
them 0.252460 -0.088654 0.374790 -0.357889 0.058375 -0.021570 -0.088219 -0.182707 -0.320964 0.312636 -0.124893 -0.135481 0.141432 -0.059930 -0.016534 -0.216081 -0.013107 -0.108844 -0.058770 -0.095779 -0.191004 0.104933 0.586896 -0.295229 -0.174615 0.142810 -0.343637 -0.387535 0.464926 0.502984 0.306464 -0.074899 0.049056 -0.176145 0.138960 0.035264 -0.016006 0.287609 0.120483 0.084260 0.016598 0.249502 -0.056861 -0.424859 0.178498 -0.335096 -0.457669 0.199719 -0.112070 0.056039 0.167191 -0.123810 -0.362132 -0.151575 -0.012351 -0.118022 -0.016474 -0.189677 -0.003000 -0.000388 0.073545 -0.092595 0.343564 0.088855 -0.065708 0.180160 0.203431 0.119522 -0.052130 0.279125 0.167044 0.311366 -0.085994 0.020859 0.247230 -0.386293 0.262621 0.126987 0.426697 -0.136047
government 0.383149 0.000516 0.304543 -0.181526 -0.277544 0.150479 0.053005 0.165602 -0.065198 -0.310298 -0.196938 -0.144662 0.007862 -0.304795 -0.069380 0.190160 0.273048 -0.065879 -0.533035 0.174565 -0.157082 0.487918 0.908489 -0.496738 0.007642 -0.156995 0.100485 -0.373598 -0.057373 0.565725 -0.039545 -0.278432 0.418083 -0.148848 0.225797 0.198109 0.037503 0.433173 -0.530186 -0.022514 -0.173645 0.027203 0.141612 -0.064721 0.359452 0.033420 0.050494 0.407483 -0.104536 0.319257 -0.157726 -0.278621 -0.285322 0.026629 0.179719 -0.464168 -0.286764 -0.099291 0.026587 -0.029104 0.267595 -0.192870 0.248344 0.089636 0.127122 0.014662 0.180653 0.076966 0.032002 0.253036 0.457372 -0.050077 -0.517786 0.037913 -0.049564 -0.486842 0.165657 -0.153511 0.505108 -0.464289
now 0.332395 0.004018 0.464011 -0.174230 0.095101 0.149770 -0.119845 0.035739 -0.077089 0.032924 0.001208 -0.360450 0.250533 0.018017 -0.222875 -0.179598 0.137252 -0.146276 0.138042 0.025369 -0.136217 0.147355 0.663442 -0.054401 -0.033323 -0.042955 -0.050714 -0.023006 0.323167 0.282331 -0.078782 -0.140383 0.052741 0.357492 -0.089332 -0.160543 0.074044 0.286491 -0.110684 -0.191983 0.022633 0.254507 -0.042065 -0.052092 0.379685 -0.232615 -0.054891 0.194029 -0.052435 0.088357 0.150335 -0.400926 -0.201843 0.221554 -0.011273 0.124900 -0.137770 0.087944 -0.196894 -0.233298 0.217105 -0.083060 0.114824 0.241661 -0.111631 -0.182957 0.283859 0.068369 0.012494 0.271157 0.158931 -0.026911 -0.142809 0.032334 0.219694 -0.194363 0.066486 -0.125945 0.476531 -0.045469
- 0.099211 -0.257551 0.130511 -0.181596 0.364627 0.147390 -0.231626 0.209698 -0.216784 -0.239127 -0.035989 -0.373955 -0.116092 0.023251 -0.103582 -0.321979 0.017834 -0.439671 -0.430673 -0.043972 0.197026 0.663399 0.589096 -0.581657 -0.008176 -0.100776 -0.551043 0.062438 -0.168244 0.282213 -0.104090 -0.285177 -0.142551 0.057181 -0.259887 0.333765 0.132908 -0.098666 -0.148535 -0.249617 -0.167357 0.341734 -0.563656 0.412174 0.206984 0.125304 -0.291777 0.311489 -0.316909 0.285923 0.295624 -0.149644 0.301655 0.034617 -0.150469 0.114717 -0.319614 0.032166 -0.400904 0.241728 -0.213868 -0.149401 0.117574 0.769076 -0.063818 -0.253282 0.102988 -0.202304 -0.383552 -0.276496 0.166986 0.224539 -0.061602 -0.309887 0.293993 -0.228163 -0.023876 -0.189390 0.116729 -0.085803
our 0.354191 -0.201721 0.593929 -0.090489 0.100591 0.137032 -0.251206 -0.064779 -0.018738 0.069458 0.077278 -0.031251 0.179950 0.000571 -0.258054 -0.212850 0.238779 -0.344477 0.176831 0.062842 -0.438378 0.011952 0.485826 -0.679863 -0.222288 0.327413 -0.011833 -0.301201 0.745186 -0.013897 0.245449 0.134865 -0.152465 0.084758 0.262804 -0.031676 0.141134 0.106506 0.259716 -0.245739 0.328565 0.545645 0.330765 -0.034632 0.445104 -0.221282 -0.007231 0.135117 -0.172415 -0.112733 -0.030439 -0.361557 -0.458568 -0.111210 -0.022686 -0.169863 0.149998 -0.303277 -0.194444 -0.023146 0.120969 -0.300990 0.028461 -0.037024 -0.186881 -0.105412 0.021230 0.094112 -0.035779 0.392206 0.500996 0.247399 -0.189578 -0.195643 0.120130 -0.090817 0.320636 -0.094833 0.359547 -0.609886
